{"layers": [{"name": "image", "type": "LAYER_INPUT", "index": 0, "width": 24, "height": 24, "depth": 1}, {"name": "conv1", "type": "LAYER_CONV", "index": 1, "units": 10, "weight": [[0.4848949543200028, -0.16164653108005633, -0.08510296469199105, -0.07124567505215852, -0.07824039479233358, 0.062135825205676634, 0.18499521842061625, 0.2635121548113651, 0.02976063527132332, 0.05057187387279593, 0.1561306389532422, -0.23741490923074596, -0.13192677500278016, -0.09518199316132722, -0.24418470271314077, -0.1882283158252312, -0.1618006213312601, -0.08419337488477226, -0.08374752504363861, -0.3600525334689641, 0.28095758585839214, -0.36311040943254613, -0.008233117747953125, -0.2554379525744477, 0.04345076238015567], [-0.37951340755043383, -0.22590225531842328, -0.16762767141335985, 0.07514513622589943, -0.049443517068669236, -0.11253506188228993, -0.24614408728606638, 0.09793402071686409, -0.5257124363498431, -0.4817786621227201, -0.1933756494302726, -0.2771748977695059, -0.022826197206714006, -0.0688470218296238, -0.2610099336341769, -0.06892267320771318, 0.004136943377876338, -0.0751132902739512, -0.022722276993935763, -0.16740101951237138, 0.7521754758527694, 0.2608761246213675, -0.17242892483099748, 0.1723741032517005, 0.11600611050344799], [-0.5701716386050718, -0.5151263623111784, -0.4165629208478126, -0.020930628957075415, 0.27033326229838905, -0.4800818810011025, -0.5661787775492668, 0.10569253029820509, 0.44542713783184495, 0.288563973742969, -0.3657645701221712, -0.44410627478012116, 0.14714609021657243, 0.5386501720790907, 0.11239106177941693, -0.46116437524838794, -0.15763368932186922, 0.17947879177369302, 0.365342234280273, -0.18756498588061749, -0.2857926597862144, -0.2541620100989035, 0.20850095800890028, 0.5613127509379229, 0.04359860516437916], [0.30229700119209846, 0.08394342248082355, -0.15821855505211163, -0.6477353077850109, -0.3770057738340894, 0.1860332660501481, 0.6005074627742487, 0.35188050338180216, -0.1685251714222758, -0.24164945346341948, -0.37268010891931, 0.5610253775931887, 0.6646168168297716, 0.16441342992460695, -0.14242559619698872, -0.37548221500973067, 0.11348740165577016, 0.5043303154291707, 0.23999509970353397, 0.1354428088624348, -0.6510212923721156, -0.27161402837625165, -0.14741221131198748, 0.2046333382763562, 0.11749277043233784], [0.12151247362424365, -0.09140472802886675, -0.08399249394681141, -0.30459791569085054, 0.18573572879380942, -0.19547796554458471, -0.43931053538374165, 0.01181119211889719, 0.03590572590177627, -0.3224333684144458, 0.08504778368214533, -0.4956430238319879, -0.42236323873316683, -0.04916662790103946, -0.8345062525137518, 0.2514076379444977, -0.31772046928691566, -0.15699560963983097, -0.18131611670681744, -0.33898208967239457, 0.7293519297345024, 0.5807161267656753, 0.14729009330047738, 0.4843263593012542, 0.2593200341788157], [-0.2906537318240659, -0.42344870001557194, 0.09736736379460746, -0.3565407374104387, -0.07581763417545898, 0.29723753967930816, -0.15776209092752053, -0.3808312136250393, 0.06160028284159438, -0.3913680620788184, -0.07416201022986142, -0.14059026972979102, -0.031638739593699325, -0.3280743280155528, 0.034239759135700355, -0.3606230634385043, -0.13423967332614814, 0.014371379498123288, 0.2791628980055389, 0.3132688215499763, -0.12833918266970248, -0.0672182438192059, 0.45846532755619157, 0.3478765854873231, -0.2605148599600153], [-0.11658195655169473, -0.226296242382097, -0.07520393478780826, -0.5755759780267028, -0.5560139519139958, 0.366540344601841, 0.11829091854898609, -0.39432960816675783, -0.10906074845070085, 0.15828132038471168, -0.18316929272642, -0.3349160884412763, -0.05534549311926025, 0.1495859320931733, 0.21970820756315615, -0.1796956230459977, -0.12119014930141168, 0.14050840820147809, 0.3675402366884615, 0.2396123833476442, 0.2993882616462479, 0.3011812824327086, 0.5806633052327976, 0.03730663850820695, 0.035197811014379354], [0.11801068722388179, 0.21432639978992266, 0.18358521414462664, 0.34318945704004655, 0.5736392146655998, 0.1379034034263379, 0.2621683498252008, 0.5276510059463175, 0.5109426471855563, 0.2952541959485613, -0.6859969135658448, -0.08921948214090121, -0.4505722274240492, -0.4651567988352355, -0.6433809234377041, -0.6992777484566395, -0.6049476127301737, -0.3052228090506176, -0.228235411947064, -0.28090219134855815, -0.08752735333045145, -0.37763252442365713, -0.36758014756364576, -0.5020150976750333, -0.218642044906786], [0.2512476811413609, -0.2434668555584132, -0.17966938920347525, -0.258099597089772, 0.04511543970138226, 0.08239993360616207, 0.01824353590024218, -0.284914238096172, -0.15031185013076878, -0.15064199057682248, 0.2787266115450721, -0.09462005737841925, -0.12273607115301388, -0.27300482599380604, 0.08000598255757455, 0.11740080986672836, 0.007217193336609504, -0.24310771406330928, -0.3819386151545427, 0.34019637761888244, 0.2555621011379266, -0.11927072552409008, -0.14899575634426704, -0.3925493135270651, -0.2823312010921688], [0.1210199239146615, 0.5691403366685832, 0.03216438875519491, 0.521046952769068, 0.20255671511763135, 0.07679536924852334, 0.15944446064671158, 0.041287594329713226, -0.16683142915531687, 0.13893413615646624, 0.049277203705224086, -0.058872364904995395, 0.20174144717267994, -0.4886232284461419, -0.16835876030014957, 0.25089892965619215, -0.08068813645685087, -0.11423482408675271, -0.42574857514213776, -0.1969338362454966, 0.11277869785153877, -0.1102773457315995, 0.21896838659661239, 0.07973947328648114, -0.5026971647420482]], "kernel_width": 5, "kernel_height": 5, "kernel_stride_x": 1, "kernel_stride_y": 1, "pad_x": 0, "pad_y": 0, "biases": [-0.04158482571115222, -0.006071597350842481, -0.6499547608043896, -0.7634393001994967, -0.26191366879190187, 0.04617975651151718, -0.12704690313627368, -0.032576126351762734, 0.22117051288789125, -0.45440497878561104]}, {"name": "pool1", "type": "LAYER_MAXPOOL", "index": 2, "pool_width": 2, "pool_height": 2, "pool_stride_x": 2, "pool_stride_y": 2}, {"name": "conv2", "type": "LAYER_CONV", "index": 3, "units": 20, "weight": [[0.006259831150167001, -0.01556060273220929, -0.0011844018575150512, -0.14866342203869112, -0.04152011399405466, 0.023253026334525653, -0.020308025326694255, 0.043562614668580094, -0.014819736895421681, 0.07562661321097683, -0.07021051999966903, -0.04553723478413651, 0.05538639586347019, -0.08237100242747188, -0.15313940582887972, -0.1905175880851446, -0.02523771108865442, -0.13393851281859406, -0.0011465845870268173, 0.011868893839912086, -0.055662171359932226, -0.04810091179288304, 0.0010618769889289073, 0.0018651879621810123, 0.14975550881624203, 0.024549257569721285, 0.11428921747713758, -0.04789993812356979, -0.08819715805276132, 0.01851760902723356, -0.004033136092711368, 0.05786172763555826, -0.000593096837603825, -0.10884259556204157, -0.02185484782923561, -0.05697067258105915, 0.04220809541030109, -0.03456608337038305, -0.04947186263923424, -0.0699770736408986, 0.12041608896095014, -0.05083038775550347, 0.04550551425679954, 0.029497053677883807, 0.044776898950329484, 0.017849890558104986, 0.06584333491513127, 0.09907192429055332, 0.0888887820575363, 0.0449291013690379, 0.14812489614351393, -0.04512257544103327, -0.022535988324251605, 0.4727325132267184, 0.20746485482992852, 0.2981069436262283, -0.003542100662861862, -0.0020370077137465575, 0.3084366512393092, 0.11851421232657318, 0.16820591610038602, 0.16268555229184475, 0.17203058328355694, 0.02635739286793543, 0.046329569257888795, 0.0758562753353919, 0.13239936808494665, -0.08475922984038861, -0.033534899520111044, 0.1763708865032644, -0.0061039843712607485, -0.06963780269671958, -0.09254993431701254, -0.149974308866207, 0.07482892277546245, 0.04624648744049422, 0.007194559639411547, -0.1643877305874363, -0.18151523829374436, -0.05427752596834221, 0.02082011270037696, -0.015128519891027528, -0.11582602285126763, -0.1175147301469067, -0.019333242638766693, -0.08412020983441972, -0.11720802020313176, -0.1509607472694081, -0.019349910637897916, -0.037606655792492304, -0.09761244096245393, 0.0551806294443447, -0.04115931135169197, -0.2855749461327642, -0.02917427691974477, 0.1573708863126688, 0.11264199099243104, 0.10396325432132027, -0.12803275972252207, -0.13114330828906512, 0.017421945285777007, -0.004850212248556372, 0.019473053449681966, -0.1758492712536425, -0.18480515432100966, 0.03883955053002737, 0.023933790639079747, -0.07218495663481779, -0.07746451860575321, -0.22775866585218668, -0.01922107987999646, -0.09239047148764169, -0.02152544172300194, 0.07185024368879687, 0.046951591335187906, 0.05962538337252495, 0.1103004237791023, 0.05988001162873911, 0.20199089106912377, 0.1528401572518869, 0.29813641794998774, 0.1287626537000586, 0.19313274185784038, 0.03674552913492766, 0.09079201163314504, 0.14735842067040977, -0.010440124656571348, -0.005903154946266053, 0.07097743619066603, -0.025001788261753553, 0.13964797759248304, 0.06091226519014153, -0.07290055238862418, 0.02883864881059654, -0.0030192801492920983, 0.05213327429937238, -0.03809454489848361, -0.09580766510284168, 0.052166559731265626, -0.024369361935418953, 0.05995082391220451, -0.1260036525027576, 0.05868921713189229, 0.0017047935001778534, 0.02133251237831098, -0.053458772094788255, 0.0038712649331882846, -0.022221212897582058, -0.0405581468266854, 0.050682266484509624, -0.0805912515739891, -0.22229412161858303, -0.13836376020819277, -0.014728108370736244, -0.0673794785668971, 0.05722302058791198, -0.18085737397544177, -0.08974252436533232, -0.031853904907854474, -0.06252914445535031, 0.023958397864013554, -0.10212771718816169, -0.030975683276844697, 0.010826332870738009, 0.003526849515202374, 0.00711509335881457, -0.03240791811157757, 0.14814700776497866, 0.06480815006643699, 0.13836455558076996, 0.025539672452964297, 0.24020331618298071, 0.20632393704188484, 0.22062311910324775, 0.22268398423807814, -0.13039182323705584, -0.10172637274025982, -0.07030868123165392, -0.1399728672265309, -0.28386816527697806, -0.06360769150784024, -0.20854453158514447, -0.2527248656242282, -0.3099290657428833, -0.2933384507064365, -0.09347833675481879, -0.20989211961462828, -0.19040418262874084, -0.2533836158762475, -0.11893180829286945, -0.048395865254398936, -0.07633799088098317, -0.1294738700837062, -0.07638442546754155, -0.1319161728229842, -0.1794254236008898, -0.10849429385407985, -0.18308654282645967, -0.0036314569705643914, -0.07914620808744842, -0.05363137754629048, -0.0019844622571255294, 0.2627753296518204, 0.10744562094106448, 0.11680461769571002, 0.020903056443157066, 0.0649865215906317, 0.20173989210913137, -0.024658980960783432, -0.10142618334822015, 0.044103061707326134, -0.05345729874323007, 0.12472909058411996, -0.00692192267294074, -0.10109645114862632, -0.09386631016670091, -0.07858181407501348, -0.07160217455290721, 0.005996998448197456, 0.05388554327436671, -0.049821178568170935, -0.18106961703315416, -0.18701855723469557, -0.10582642896676983, -0.10768418915422191, -0.09535578096558767, -0.10557397721225198, -0.2545289849194382, -0.33086298495775746, -0.05383926610018659, -0.031415722539222646, -0.11719783940504859, -0.2511611728636229, -0.19375622695422856, -0.0869133786159385, 0.11716079258594238, -0.041441771483608184, -0.24478985204048054, -0.06283861144388132, -0.11796317292288455, 0.09256774640297027, 0.08825517314803362, -0.002783914629795645, -0.10525354197209047, 0.08253686842231897, 0.09195796885292565, 0.021292933489674752, 0.08143092585352521, 0.12709255342928466, 0.16916206521624141], [0.11568647783960478, 0.1769579935825912, 0.046032742090366584, 0.043350102891449534, 0.13111521583192765, 0.00551002489550169, -0.03978996964468898, 0.04146920874993686, 0.06864667637580636, 0.10654644512706388, 0.0870270830256393, -0.019532566270228608, 0.021150450207017557, 0.12135466255185864, 0.04060334258397078, 0.011276031209764916, 0.05536391675248906, -0.01041628274546304, -0.11698600022933457, -0.0015898943475187723, -0.02455826633476875, -0.23291433974174544, 0.004922852002421928, -0.020930160099791904, 0.03974349517579464, -0.02905537298646047, -0.08477110168780148, 0.04645551693036682, 0.03162594266407589, 0.13600001103751655, -0.06408811795592947, -0.0031061144178997505, 0.048084269344789134, 0.03496518250258798, -0.12821698509918364, 0.04256351700694802, 0.0002904288898570722, 0.033989191880930934, -0.00795716372328418, 0.13381634326861883, 0.1000348999164848, -0.008418461038815104, 0.12461243637793362, -0.0070398619879410455, 0.02386849675025595, -0.04215219723925141, -0.0218001017133816, -0.00578287253050623, 0.08305426949423998, 0.05547816566308804, 0.05888218145671736, 0.1163333842740128, -0.12269338479712792, -0.13656822040449354, -0.08026594886999908, 0.10483610515400295, -0.12152130382370975, -0.20430951051811908, -0.15943793888603244, -0.03472179884145929, -0.013049137264522384, -0.12102145857731197, -0.014276793733608132, -0.18003294394724614, -0.060924588324303794, -0.06152797144932264, -0.16044453136106734, -0.18071756006682388, -0.13315883005918927, -0.21163671997532002, -0.12881900558041307, -0.05296511771181007, -0.0965183543462354, -0.048493788053616274, -0.16176071047159266, -0.07250004794295752, -0.06258787914130794, -0.1317845538137379, -0.06932506936967191, -0.17459538749805506, 0.11664404936078962, 0.013305677134837756, 0.07391378410962939, -0.17586205956311476, -0.16961414753285542, 0.08656301881778188, 0.12386013654536694, -0.09831458481886159, -0.13434648833930568, -0.21815844130394438, 0.11793288285208539, 0.16185684373617668, -0.0681294082500114, -0.034291029843234073, -0.03535178387694008, -0.06835504305216052, 0.11072747643917993, 0.12307623220863481, -0.10944196322827898, -0.18940340812016127, 0.14557189326238082, 0.0669609958385031, 0.14909449858576224, 0.047816117890761914, 0.07494528154573706, 0.11629000755120421, 0.06086700256899034, -0.038143439645914406, -0.030608212003512176, -0.13022149729437663, 0.015382532893539455, -0.09522428582731184, 0.025280156208551667, -0.03830174178971095, -0.09555036915022279, 0.05908012092051007, 0.0037997388938297277, 0.024968385279249414, -0.05979305923974187, -0.007916707878242937, -0.07967923950025747, -0.016970545171768055, -0.10667063447189622, -0.18548151206365637, 0.01208137985905489, 0.04114040625817522, 0.011560074797974844, -0.0746720056123584, -0.05291373976715134, -0.02308570445974653, -0.19930040088921824, 0.09235866213608587, 0.0402984005662251, 0.042444994601639544, -0.09711396698600755, -0.2154714219748735, 0.00888885353159577, 0.08291882338387964, -0.03500743580956947, -0.10236670267561566, -0.024636409499485742, 0.12142898864748507, 0.07706846762371683, -0.047349764759519686, -0.02374468346833314, -0.11279046507668662, 0.00946155188092529, 0.0554080459831053, -0.07573963116298171, -0.11445819383833344, -0.002120572490956918, -0.08615353618667208, 0.06252067739257064, 0.08849616381722994, 0.17366113465992453, -0.09586150704768481, -0.022257647690885087, -0.07604998337209491, -0.04175595138908615, -0.1468516685351179, -0.05667700667476936, -0.051695616638347576, -0.048545771804504645, -0.11442359503281885, -0.15957958807091122, 0.004393267244486563, 0.013422565062605087, -0.07140991042890764, -0.12741017489043482, -0.3119675349872925, 0.03590087389165763, -0.01110549152392209, -0.0371276505304935, -0.20564703211277008, -0.2692386244952377, 0.10225120191369878, 0.2000597131890243, 0.21206971718989084, 0.168747529773284, 0.1522851971614938, -0.03054797577682227, 0.07650438342562825, -0.05168231857915048, 0.12830109682939933, 0.16412979346686296, 0.1382446603465251, 0.19702300200234035, 0.17912947173569752, 0.2085311254519132, -0.03687274170115776, -0.05297171677180376, -0.005147723047230911, -0.0003675307285804403, -0.10254338489936421, -0.2615523719111413, -0.06350238938697184, -0.013643504680026959, -0.1263647115545092, -0.015554481877531143, -0.12069448127218789, -0.18466029307059467, -0.09924966435640953, -0.1250893479269301, 0.04910666372175306, 0.06243834751192975, 0.09223471617039265, -0.11839132785308382, -0.12946520154546046, -0.17505923406347834, 0.004298706241836466, -0.05105404266330218, 0.0019202150831298353, -0.1271748773484612, 0.03151894141581604, -0.013196939770450463, -0.01762419720645418, -0.06467760418013944, -0.03819707662637004, 0.15318436483840764, -0.005293380185838907, -0.06519604046113857, -0.09699544621867158, 0.14783629244308977, 0.10103530351727011, 0.00445064818014613, 0.19207960391173406, 0.2331837162057597, 0.18509308037301778, 0.20206432043996878, 0.10844116703373975, -0.08181464703459475, -0.023900220067846308, 0.013142598699491985, 0.03540722161996638, 0.13832683265224435, 0.2909902792634673, 0.11679338472794566, 0.14474967611016243, 0.14207299327733558, 0.05904547741934482, -0.015868439916458747, -0.008099483779299591, 0.018571842556593773, -0.14929529335974498, -0.26635374237617193, -0.08783202307376409, -0.1791570180443904, -0.20560124314266864, -0.28956114891795615, -0.27502007411434726], [-0.11629358399627589, -0.1543627530955513, 0.043655211991063106, 0.08123235880373722, -0.07944172411268897, -0.07931412664130674, 0.06221031057587814, 0.051427333787725876, -0.12895175416792345, 0.06231177251823199, -0.03507308407821972, 0.13891176534348768, 0.04814490723944159, 0.010698052345045974, 0.0760526570290773, 0.029649216184512984, 0.07159478159511873, 0.024235447737181507, 0.09987752275871406, -0.2060187007195231, -0.057290716473947866, 0.04961240169072366, 0.14767765404128375, 0.10048001610611038, -0.04563014647076639, -0.1035609295266631, -0.026035153307459504, -0.08111164416834082, -0.15543847522874532, -0.0375245980107011, -0.06055705636714342, 0.05109025967441599, 0.017199914517866614, -0.14359832656797056, -0.01826182342437242, 0.0006383696411288737, 0.015986783318465682, -0.13170357853535886, 0.03638441884291736, -0.06051703061272835, -0.11957530678863362, -0.04544956667174379, -0.044876964676997005, -0.042631713163291354, -0.09593763938244296, -0.03221807741437188, -0.020097984027396983, -0.035985369200054455, -0.08752965171374665, -0.013509157221343224, 0.3143578869570099, 0.0022741704016887385, 0.11587390062930192, 0.055507427023696196, -0.06367220045741936, 0.2667374711297507, -0.03238474244286542, -0.027781542589284468, -0.028545409751707683, -0.005470376224908116, 0.2393604641891545, -0.021800681833329588, -0.04582800060639735, -0.1996409146803222, -0.23312182650704671, 0.022219073492377943, 0.03663778645739599, -0.13815962474679236, -0.24855645444675448, -0.2710870891693159, 0.06984297740416719, 0.08705959495377334, -0.10295668398397018, -0.055975487956913386, -0.27979216387175265, -0.05469134974158553, -0.06597566609478013, 0.004744973965065721, -0.11763502897023621, -0.19971947097986917, -0.1061593284909469, -0.10925487968180726, -0.07134966781609747, -0.13651752012197665, -0.09734883044504129, -0.011912504008517068, -0.06990558626949521, -0.0905181141357943, -0.20852565047086008, -0.2118952064612634, 0.05664500983438133, -0.12709369277749816, -0.14483161799545574, -0.1723257482680204, -0.18759525002235222, 0.12484814795543057, 0.19598471059391284, -0.039164333652307384, -0.15255942832567065, -0.1518246185425511, 0.010960007685156283, -0.1005588257682362, -0.04009991002469556, -0.1347893150809808, -0.15218680542562707, -0.17263160855368803, -0.06893673736799037, -0.1262656511994522, -0.23282174753995846, -0.2375085854790702, -0.04900477817814828, -0.022248937193577078, -0.05683198056638072, -0.06977543216782878, -0.022580117204013747, -0.15754516111667874, 0.030581816920529786, 0.03351904457212866, 0.011409334852686623, -0.05261619583924243, -0.16801499844377882, 0.03836309087477526, 0.11496600402331937, 0.06681443662486343, -0.03033070574261056, 0.0011664923820343162, -0.023555877942467093, -0.07055269249167873, 0.12648501750277663, 0.010569793844107334, 0.0342388389389096, -0.10198114910004266, 0.016619074542585207, -0.01646416604531878, -0.04557087709890013, -0.06000922781974569, -0.06615460877109604, -0.06311051809149126, -0.007261462650097461, -0.04289423126447732, -0.127564081767167, 0.030026494229100965, 0.013692483090325822, -0.011062822224728718, -0.07961262807390772, -0.06577784105230342, -0.021648881845662923, -0.06820226152679247, -0.10012541785719216, 0.009177234454119842, 0.09993596359278799, 0.07399550335578889, 0.05681129830934947, -0.148627979593934, -0.3447716469064283, -0.008724205127054633, 0.04655561963889101, -0.04884912363141854, -0.2354046824632574, -0.3444421457099934, 0.14591193572930353, -0.1381520854513761, -0.2666469984279124, -0.09071242627608178, -0.07385192277589991, -0.03219836431972989, -0.29505818054307775, -0.20243627201617334, -0.058767636406522716, -0.013906496443476581, -0.06492971515458233, -0.06216791545624841, -0.18425708004185404, -0.146189706206868, -0.14159180781358133, -0.09809181123402688, -0.1646145424306102, -0.14531625346733382, -0.19224428301368574, -0.173011154556538, -0.17918424038699238, -0.08180138122641156, -0.21578150487360137, -0.02976446369155095, -0.07152401941605488, -0.09613951885114733, -0.07289294162136928, -0.08770147321895569, 0.14893600485689412, 0.09277805585213561, -0.19077285030118918, -0.19982891010904644, -0.10038947195338459, -0.03010364874788146, -0.06992097544074972, -0.05140606186634116, -0.12233038252504916, -0.08524563777879639, 0.04606686871545829, -0.001866845805655496, -0.18533264086588921, -0.033249642119512354, 0.030665030651050546, -0.06925363411697372, -0.04056248321146423, -0.08865170240003264, 0.1248332365020321, -0.045004397928879336, 0.05283464723238715, -0.02809365746528477, -0.09278183508783935, 0.0406014016397844, -0.02044828227041807, 0.048509003524342675, 0.041510236862117064, 0.13280593571570393, 0.14661741385127097, 0.06637178280777752, 0.04206888988480504, -0.08318657946524435, 0.061957478208294725, 0.12594324423545464, 0.1986681989437558, 0.1625151307077223, 0.006784908033005805, -0.33315690806052467, 0.0924329031340882, 0.11207372390933547, 0.05495840377837525, -0.012082133922389507, -0.25339443102682535, 0.13429491045559616, 0.11023671686772922, -0.05381662497198652, -0.2494214701342035, 0.07646845957128609, 0.09879716933439056, 0.17766597749176133, -0.1416458222792806, -0.28644344783773995, 0.13977920559207832, 0.2503807918692633, -0.0738800847159026, -0.2738499618659496, -0.18216286383418828, 0.088579221747247, 0.007382388143063304, -0.14284955033804472, -0.16390293776720902, -0.15573678063022567], [-0.08749029193063164, 0.04811166916566514, -0.07801529050312775, 0.03688652821850167, -0.023543730642606963, 0.07613086772504703, -0.0235688886865063, 0.008691056558107221, 0.1018687184727193, -0.038126828999548674, 0.04346383585162246, -0.03351725560685264, 0.04871056560752962, -0.020216395633146346, -0.1255176934486327, 0.006169003621868612, 0.022167508179977317, -0.08160144680582583, 0.04142918643049569, 0.01395871976146827, -0.032477311320429435, -0.07995478987811007, -0.017741947043040524, -0.05914592201862566, -0.09512226098443856, 0.07917295759213916, 0.20938991648381033, 0.12428952573722223, 0.14904110160596978, 0.1403718339604912, 0.10771718491827209, 0.01113607811394234, 0.06488681735618874, 0.14683649890716238, 0.15219587974488036, 0.03784246713292612, -0.10093530241788934, 0.03557256030390863, 0.011830913799347616, -0.029733026080881034, -0.0313309867494754, 0.017391811324995524, 0.11064007695897343, -0.04991743016824804, -0.09445211855522671, -0.02305408280058577, -0.03624495071463728, 0.005282648949510279, -0.021997906809610623, -0.12454412912296323, -0.11832988186596888, 0.029389836458686366, 0.17875947575569265, -0.0784094727676014, -0.10340625679116164, -0.027655984799164576, -0.039400058861773744, 0.0030158939324695117, -0.006032685692049859, -0.07867928872103591, -0.061938484918371374, -0.07862952498924566, -0.061834767929021185, -0.21473162468018522, -0.07478792619736958, -0.1332889197581138, -0.09599270118982675, -0.12591643913913197, -0.11703075522912501, 0.08040338644630805, -0.17196454478365789, -0.06387456880707358, 0.14848178235134524, 0.3190895578711693, 0.1253058300048625, 0.06013171244925597, 0.17089701841097818, 0.18790763894566875, 0.14913921050068116, 0.1034635150342807, 0.018096132929423015, 0.1196687350440577, 0.23522559431102272, 0.10498861936208949, -0.1091846620695799, -0.07242272237687551, 0.041511600114513, 0.08119657997164205, -0.1370380902213727, -0.1981818976981761, -0.029966740403841226, -0.09996648046688802, -0.14791551954969334, -0.08909562525634418, -0.0667568522635702, -0.28328881017865853, -0.1163040534888398, -0.21897292894640683, -0.19952029513564012, -0.09806518084074377, 0.08868415394613031, 0.20405448886931213, 0.2765287787066501, 0.2264363059481924, 0.28345529868001135, -0.059454922576602925, 0.12448525495832785, 0.14984936591830916, 0.05343610055395355, -0.11214310492781587, -0.10996687369315628, 0.035064854805189824, -0.058758495571803876, -0.16692679542325023, -0.1788167740452044, -0.13265532616865666, -0.11928380318402637, -0.023532357439023377, 0.06461560226230421, -0.17999510313678757, -0.018572479267609614, -0.1575689540919355, -0.07223769054127413, -0.031572546813411456, -0.18578032106376488, -0.18060418413193977, -0.18868631818562454, 0.0886749828779518, 0.1982939310838669, 0.1626575024856952, -0.036912171538713255, 0.009073553818412591, 0.0024122482211653305, 0.0922803425241768, -0.060143939036360866, -0.10747829336204545, -0.0074387068654581095, -0.12664206796271268, -0.08472732956978263, -0.009752136693425232, 0.021798470400299717, 0.03391568272887092, 0.15721981311498576, 0.03911290963251149, -0.10503445012366731, 0.18706169422729324, 0.0033440464657009507, 0.03140843576609642, 0.015198407060369918, -0.12338345108620064, 0.044937289900082424, 0.10765241445034275, 0.1394300256417305, 0.33691145109577814, 0.4164111873047571, -0.07155065850790873, 0.06556097013840223, 0.10708183756475494, 0.08300219618855664, 0.029039731448461937, -0.3075767156294406, -0.12693624096568182, -0.08154919306187647, 0.09161722299795233, -0.17873417107726203, -0.20280684591366197, -0.15097945263746088, -0.09067235840283541, 0.05165127892301747, 0.07281731325486678, -0.07119790324028488, -0.08608842361850322, 0.15902245773569373, 0.09397331653521603, -0.13055927610588236, 0.06198547695286994, 0.017532878092038878, 0.0933387667035471, 0.059323019191935486, 0.14001617883863088, 0.17973200999562314, 0.14963978465450808, 0.11467847483366211, 0.3960501286290213, 0.31732920684777227, 0.027526910788291736, 0.03051378907849381, 0.24277822023529344, 0.11571004489711881, 0.15755158936474198, 0.23390986390244473, 0.2517704826255537, 0.08384259408574818, -0.02483025505107213, -0.19010325610638032, 0.040148575793604646, 0.05936151120070277, -0.06739466739613542, -0.10344798076892536, -0.1788816468878862, 0.09103667671402255, 0.02924221336716346, -0.06414169572960915, -0.05381656843009301, -0.08579918491786707, -0.138670068146419, 0.09009610694955521, -0.049245670724492194, -0.08769116427496387, -0.10541322969553721, 0.1165530199527105, 0.011116091388968045, -0.06453880329938257, -0.07210113642285995, -0.17900469014038795, -0.03729309177985321, -0.10383801516348799, -0.039630025806870244, -0.030288381998622382, -0.06184753757491825, -0.03784887143704012, -0.030754767541937608, 0.02277172736579861, -0.026887447672263615, -0.01837732951223502, -0.048351112924207545, -0.14896724926330318, -0.09063201930478533, -0.15386808035907812, -0.2917839799709925, 0.12683585292388933, 0.11582205736827945, 0.14324825974509486, 0.1600355901301656, 0.14483673135872707, -0.20011127481665406, -0.03468514565058846, -0.03691140193614636, -0.051726314459508906, -0.08294301174082894, -0.17964231357270327, -0.03102844251358723, -0.08279724869089371, -0.1391941646279472, -0.17827326728028162, -0.25315896716800407, -0.3045279466796438, -0.13187216663481993, -0.1046223410719023, -0.054961619861780345], [-0.08499014237369178, -0.09129652298408805, -0.00036403314175447224, -0.03835340613765468, -0.0013955918849225648, -0.04756708789141522, -0.11403913992124633, -0.012880804549139662, -0.06074055224569568, -0.05514241582385307, 0.020817270060381716, -0.07698658872059289, 0.0925682160034733, -0.15526318575764303, -0.031354140428455364, -0.03426990187143388, -0.09798725269508662, 0.001802831077039524, -0.02499136278808819, -0.0025345843558143848, -0.02050444735644137, 0.10514043178494005, -0.03789479384381331, -0.09230848720912643, 0.0034734133607611036, 0.11380662413616859, 0.06487805294839757, 0.05087432792903967, -0.0033602235493656266, 0.005097754642125657, -0.03343321823188325, 0.017811214263891765, -0.07189966490251153, 0.037705873042873754, 0.16276273953825965, -0.03175841898485305, -0.11395529282317385, -0.021507262617958645, -0.06768876299380215, 0.023163298061712547, -0.10199607640916321, 0.11893299723704481, -0.03393986705081556, -0.08254109001356182, -0.10420275676769349, -0.09544324706631825, 0.006435881638899273, 0.03272669796335669, -0.015618062312835657, -0.05421140812473184, -0.035135590672184254, -0.12583139382159314, -0.12117167050021557, -0.15085443692801526, 0.014035340432176295, -0.21548839239345144, -0.22980669430044082, -0.27377198005706843, -0.015605685148251914, 0.19912198615966642, -0.2400461665783334, -0.1179704438346986, -0.06355547838309382, 0.17534343634374636, 0.07765184615712674, 0.03805062399167432, -0.060016244732162036, 0.06367111168440467, 0.05979320321221485, -0.06046218191027992, -0.11537897157135339, 0.018668125263987475, -0.08502164868164673, -0.07027460030718982, -0.07101694352659778, -0.05391338777307216, -0.0020726526718465054, 0.11805844910797747, 0.0026539809931270765, 0.04190482526337476, -0.031028168948056153, 0.19858750620984159, 0.1607978358645821, 0.15065419572020614, -0.13053342120801548, 0.04493749391240256, 0.19431701397580442, 0.181797803142459, -0.03988044791336885, -0.036281982058304074, -0.04256034902137664, -0.1119105618231015, 0.0063414704692608265, 0.07517515044379146, 0.30266753250799866, -0.16567075059122283, -0.1268267583338557, -0.014317243017655759, 0.15854862854039226, 0.2785064409068119, 0.08820415362466175, 0.07873437632362587, 0.1591058696677883, -0.08373422848216347, 0.10063470355025655, -0.058240310233008234, 0.034491509194168594, 0.020029460054624783, 0.1451881688672217, -0.01968318648114, 0.02690047661702619, -0.14054260006356292, -0.12137103926154957, 0.012748093178006459, -0.011757655031529065, -0.03165237352589203, -0.15032491962523992, -0.1071890686284239, -0.11242035178690885, 0.08695420996673228, -0.04390799304240876, -0.17467151884283993, 0.03252935128951082, 0.08474278572362835, 0.06589270146464994, -0.028016312517605876, -0.059135757038427425, -0.11478766407323597, -0.04994976200027783, 0.005529159081033554, -0.05276025986561797, -0.1474244839213489, 0.048724018491687886, 0.06956609760806588, -0.016016515877254694, -0.03566539804506226, -0.04951492907418639, -0.013173811155310943, 0.059517200364294365, 0.0036450793127098843, 0.01088291780016899, 0.09163668613023561, -0.11646949468805187, 0.019455981681164754, 0.026259396680410604, -0.0962356263071416, -0.023225037796330908, -0.033384481816321386, -0.06728390485875728, -0.09135242595414293, 0.15970505080149072, 0.10114179638341693, -0.005577612746307321, -0.04957723812347733, -0.14476597290433435, -0.05683277472750583, -0.12848834563396114, -0.02049314186401403, 0.1536650023765391, -0.08594186588624525, -0.15231056036636692, 0.031177814989291747, -0.013325497615571235, -0.10317388525809457, -0.21157004734247536, 0.12636561438260757, -0.06692399776953259, -0.050888636319589904, 0.016438277512158567, 0.11618980815485132, 0.012056573883252635, -0.0479109186079918, -0.21621691053979, -0.04574789034968878, 0.18368560798907752, -0.05037445146425484, -0.19422712978558646, -0.1922594737782645, -0.13781899333726544, -0.11138369333461674, 0.008809689387250965, -0.1590414368505662, -0.012540148796624523, -0.09995108107782828, -0.12232665255845351, 0.14651364744584147, 0.10535961976772192, -0.11589654856799099, -0.009739711554530192, -0.15988092492234646, 0.034122985079933076, -0.05651468030106504, -0.04308570078831527, -0.027485158807856694, 0.044038249659588836, 0.03132148504414607, 0.06844460427443928, 0.056634694243397565, 0.07749149755446892, 0.07081789127029488, -0.023652385871319494, -0.07250358768089298, -0.02528268064089879, -0.019711431730857324, 0.08625203423412646, -0.10605211528345053, 0.02514865233219272, -0.07581189178549276, -0.05334924418066827, -0.07481879819757802, -0.009704917044548341, -0.045690760866451685, -0.08794121577761647, 0.04174169601404904, -0.06527837961623681, -0.0023954519776079107, 0.01791329636925154, -0.003040793813217751, -0.12827694979446214, -0.11112878873278995, -0.061504334560042, -0.034416200241364915, -0.03965992792070461, 0.004935389472559044, -0.20848470772516425, -0.019337230268430653, -0.006377287143453441, 0.0018373753649632567, -0.08859234289001877, -0.18942671594297236, 0.10727895884815453, 0.03192912740272527, 0.1502068571805395, -0.1868293645619652, -0.07888649791184703, 0.06575175301349404, -0.06073225835161, -0.011663569945281898, 0.08133465608878193, 0.07777681126456137, -0.10173371168658955, 0.07497062359300838, 0.11345734695497059, 0.04532590886921589, -0.1590012049312064, -0.04031478672210171, 0.020155369544637345, 0.09600137874024917, 0.10768590548178048, -0.12396950815750377], [-0.17449526366340443, 0.04857469807172141, 0.1267886523851321, 0.11200160599234082, -0.02650491696675325, 0.0633475114891088, -0.010073600716063072, -0.001376881429825517, -0.013478687804848523, -0.006986329169570248, -0.0032481173173388115, -0.0043079605799917564, -0.040911129945399076, 0.022182541572306563, 0.028561174240488815, 0.03712261962071834, -0.0531647632762977, 0.0488943931340417, -0.004934530173587423, 0.1552591065158975, -0.027680720727089568, -0.15153347095792385, -0.036631037018938536, -0.012044278364372723, 0.04152629463394289, -0.025991298649838367, 0.05412367996778416, 0.03409997879833376, -0.02994387067452809, -0.002256949538736236, 0.026714174344514473, -0.016451001584545898, -0.055084868491471047, -0.08784239132157964, -0.059425800484957894, 0.014804263419257419, -0.018867855921723322, -0.16849512161798286, -0.19835620569732593, -0.09136517879227662, 0.05184141960825659, -0.06713741824902096, -0.013120920110805477, -0.03752738435926937, 0.042974846991902585, 0.03891312757029665, -0.024034121668225356, -0.11155793488934557, 0.058577917155964825, -0.14377700673691157, -0.03917675577616348, -0.01907547477941858, -0.10517263756687975, -0.0024459101802945973, 0.0819843444781709, -0.053756270457106424, -0.05437488844096592, 0.05062592636629586, -0.02719851390952375, -0.04938492021798675, 0.07643568450228659, -0.039868495317973346, -0.07191049999177959, -0.03753313776129759, 0.07972875311391328, 0.04504937008349322, -0.06565424046760238, -0.006520940374922929, -0.07080089299512306, 0.11925784965678798, -0.0279037720441989, 0.027035137882043335, -0.027863015876387537, -0.08685182393619557, -0.05574187292204497, -0.07363387664517285, -0.1341245382797894, 0.05158216112487853, -0.08560491699904961, -0.005226973430535944, -0.022189370094846637, 0.1344249976378742, 0.023864586358388475, -0.030127528146812195, -0.08357518666591693, 0.09806975030004422, -0.0313813471397488, 0.08361689028996455, 0.010303524212835414, -0.07546966520038441, 0.013033189567849482, -0.04700711889635265, -0.023625818264007982, -0.06538271198363682, 0.0007855248508565968, -0.026994675635192738, 0.07034903974450422, 0.0060692691148680365, -0.06798149198678677, -0.09307073110531504, -0.15761850552342682, 0.04486606663933696, -0.061497582063151396, -0.06698220561235094, 0.054790269728274305, 0.010535663412487394, 0.04112365646844725, -0.09367840197478806, 0.14928557063217332, 0.04668274930203655, 0.06190305879167372, -0.018260850196457828, -0.15035417346277172, 0.009325113164816577, -0.03240507867931251, 0.005986261202376209, 0.06843938150869913, -0.06806493744533261, -0.058339366319953664, -0.04045596355759402, -0.08060923603858881, -0.03166065820356258, -0.030454253097337812, 0.033775398929901015, -0.035776872014032436, -0.007960709603226321, -0.00167866749952083, 0.07770559797914692, -0.10815200269486076, -0.057474565517139656, -0.04269153801740155, -0.06544418113439399, 0.12356948834842194, 0.00017051812062439297, -0.019570557865297305, 0.03278100780579804, 0.03991253366122499, 0.023970343733679112, 0.025866195248439156, -0.007230943919391995, 0.17302555011292728, 0.07540057873575275, 0.018331351838947185, 0.046298414725251695, -0.1163711109194835, 0.019033821502604086, 0.04806422290280482, 0.00803561720491747, 0.05773014611761421, 0.008160778241068516, -0.014215217363845982, 0.056100378866454866, -0.08363382043814241, 0.027293260004372592, -0.08058248897466189, 0.1589430924787966, -0.020303215665261998, -0.04236888991642441, 0.0947556551691137, 0.030034177960373824, 0.12018138934336867, 0.04860355303246346, -0.1765987143121474, 0.0016479016726051521, -0.0278921487074723, -0.03554530612093596, 0.014517843750779517, -0.01931422717470584, 0.03644693038618341, 0.12949706491373905, 0.08532180563703512, -0.0057719155232685455, -0.09757408626757634, -0.1463467393734558, 0.01675679896187004, -0.012813529453007502, 0.015492223229454405, -0.01508479604194539, -0.0641447310266757, 0.029437792213183853, 0.08021466243720625, 0.011538537357546398, 0.10766032821682495, 0.05897651801952654, 0.09948336539554091, -0.11172806346296532, -0.048101291691941696, -0.008360282171856956, -0.05754448530933422, 0.0006687821263707458, 0.07177167188783722, -0.08437548905709544, -0.04590809968788177, 0.07169682097944574, -0.056130233941646554, 0.009486938225035917, -0.041293080375438544, -0.051884012765867675, -0.10605871093525254, -0.06850696514664384, -0.12457740753083964, -0.028777001802237665, 0.027419961145540385, 0.030042562427068785, 0.06346866545869703, -0.013517015065153633, 0.09229229647672882, 0.021390449727310242, -0.09052504781813538, 0.009552598289932384, -0.08009511301438738, 0.01707603959050299, -0.0013161868012797997, -0.05061657613881907, 0.07876150378273254, -0.013500372588705803, 0.005869197661110362, -0.060407155943326823, 0.05163242577289526, 0.0647989097774078, 0.01638996029255442, 0.025023076236225475, -0.0009859541030249816, -0.06799747570596824, -0.046899029494585805, -0.03371058349849923, -0.006152014749142837, -0.10020777021379026, -0.07985611469164432, -0.10295399550048184, -0.06040471529493015, -0.07549034176035531, -0.12293082769541669, -0.024143170614971746, 0.020178026784481884, -0.0646342101655674, 0.0034585975653846014, -0.05730666431334723, -0.10188182911048044, -0.018352931202678252, -0.06297052450176854, -0.05512709808594736, 0.06864365109009314, -0.06686874420600607, 0.022571001087140337, -0.09928152151619433, -0.04481434008417347, -4.959468854941129e-05, -0.02553301060015798, -0.049983908785768555], [0.038502570894534315, -0.02225597619186093, 0.09134486489215836, 0.03593207776086603, -0.02340744945516129, 0.005056743477520235, 0.07396280708591615, -0.007523584567276892, -0.0374119785592172, -0.1371030463404188, -0.0639083026899077, -0.062312598278768686, -0.08284024331644069, 0.03422535295929887, -0.01198029279938127, -0.006954996155452948, -0.02695610263918493, 0.08780285915812934, -0.10617417203756324, -0.06712927229292066, -0.05187964631023874, 0.10510371339356238, -0.06660322015344206, -0.00216536458633873, -0.03407540171760909, -0.10880801836796734, 0.01791249445594494, 0.07069416946408903, -0.009458871647979912, -0.017753378815600553, -0.028553240151932, -0.01958631395027844, -0.04935738180035965, 0.17360954487996072, 0.01944868524614258, -0.04260092453655854, -0.013467337462864753, 0.008434470863423338, 0.023238096824360885, 0.09819975536856682, -0.10267395829142355, 0.02302796362749129, 0.06088328624543831, -0.04047007126825439, -0.00425290885635313, -0.01929859282954939, 0.1063950304791068, -0.11984849430279006, -0.05678262493599039, 0.07775967688888549, -0.04206182194638172, -0.0030647421755083818, -0.005914290445760477, -0.04465991908774748, -0.00014616487073446322, 0.019581611586961804, -0.08295512417753637, -0.06383608770053903, -0.06941538632577314, -0.03706578273337027, -0.023445711359879863, 0.036410923905986436, -0.031873712835075396, -0.009417046216756913, -0.03572750187573591, -0.06123482826008448, 0.057490765757030125, -0.15648462931093943, -0.1422022664326627, -0.019699466433756557, 0.02201877880406015, -0.05592388688800832, 0.06829705281150666, 0.11930586328571083, 0.06603305794562209, -0.13908166759271226, -0.06000072767534459, -0.06702587300303324, -0.024490161895711873, -0.16079635140604012, 0.13991009952287073, 0.04299231228216755, -0.04390819123488992, -0.022787645636221543, -0.05268962411381008, -0.041786946483417166, 0.05771209529919288, 0.07317663425856473, 0.11753530153724277, -0.049098328207407574, -0.10892772197940867, -0.2309357716004742, 0.0797020125309373, 0.04731153910115562, -0.005369365493619188, 0.05882586929188922, 0.05757993006895732, -0.058140730057371665, -0.047076239814470414, -0.0015482234200716158, 0.17612214028108197, 0.06817531495736134, -0.05032322020450436, -0.0227579440300392, -0.043119107760107245, 0.0905246333388884, 0.11501017761758453, -0.00807146392100219, 0.07477125442463796, -0.009253362233984827, -0.0274847232723847, -0.0174906808963594, -0.07515026056771709, 0.06078720682823707, 0.04315270826204591, -0.10451518102025864, -0.0843998713982735, 0.08189546873704256, 0.013939376517215687, -0.05398571750224817, 0.05715100869505525, 0.018244709211098248, -0.008106742831810416, -0.09541817763627221, -0.019100545516534305, -0.0667851078967466, -0.03199169473321586, -0.030867887426852016, -0.002757849366918094, -0.0026154405206567817, -0.06593313360490456, 0.011529197554368995, 0.06245477835035034, -0.037604546041512275, -0.06075618484665445, 0.025736249004381685, 0.08549603077678654, 0.014513065979067872, -0.03345310028285226, 0.05240349267554079, 0.07283790226271782, 0.021333250853265547, -0.07328943594541269, 0.030741628985779423, -0.01944817580093862, 0.008143170168361856, -0.019203023326968733, -0.036095871446140425, -0.03583705171768187, -0.030376133138690736, 0.06194732526785718, 0.027673144830637087, -0.11170023583914697, -0.20487744593920904, -0.12803151102379023, -0.025561196137467993, 0.12915347777077804, 0.013508265765850132, -0.1905901768655971, 0.009650485963030406, 0.02856159893245955, 0.025172399704147395, 0.04237033251855417, -0.02687750695427343, -0.14378152428081764, 0.03454094124747757, 0.00383626071580753, -0.07204915286583412, -0.07934867112547436, -0.09320947868074052, 0.056704751742919585, 0.02034126343562155, 0.01684896160830306, 0.04275107516064906, -0.07236570220553147, 0.019015164100697736, 0.034599840065339886, 0.07878899849963233, -0.05394356625601761, -0.08088723416628524, 0.08307494036765954, 0.07044584719692104, 0.07224572418085778, -0.008048351601752806, 0.0045145377842511205, 0.07003418224797, 0.1699027536297938, -0.051214876733538334, 0.0050982143056110115, 0.08905617751455161, 0.07230072650189841, 0.07021487004786739, -0.06129767273808066, -0.07169495727643073, -0.04995145935711449, -0.07395109672219514, -0.03938887251530353, -0.07130570318406904, -0.07902796465153714, -0.08540240381187587, -0.06767255553706406, -0.08838809385821186, 0.017338376187568214, 0.11754462383256128, 0.037581509190161594, 0.036699260631831765, -0.01894926330540168, -0.049606796633149396, -0.1612040716777306, 0.05883637678718173, -0.09602559392742241, 0.061872031270454514, 0.11729400940506594, 0.03241420080442521, 0.0028227966338479423, 0.006071311898093783, -0.04631791143499759, -0.015925631651832216, -0.011989315685562472, 0.16774625785718705, 0.03015582253587638, -0.014821511903896599, -0.04441388969829161, -0.005538176670735576, 0.024987067767500742, -0.07841939541229859, -0.011341824112929678, 0.06974759856066039, -0.02016561423817715, -0.09036187536435049, 0.03458994598653852, 0.09905014595215503, -0.11902189836969047, -0.10054132913622339, -0.009237239593381531, -0.10966383958901595, -0.06996347985114429, -0.048940708410250215, -0.10977271960521426, -0.041516597336846574, -0.1016848564443998, 0.05491654422419551, -0.06614813665240643, -0.08444696130429451, -0.11602887712961973, -0.09086396924628101, -0.11742689982577134, -0.13372852983900485, -0.035584589991932716, -0.04065128252962949], [0.032683835864381776, 0.10754349215330454, 0.047750980137714866, -0.0700814680443664, 0.03549098338757452, 0.037085507986546445, -0.11302029474940711, 0.03512086868946631, 0.01362448166124752, -0.10194647079892077, 0.03855129221673257, -0.08690983858080532, -0.03369457882439698, 0.003554565124556192, 0.10630724436641419, -0.020559849975814653, -0.08551733564672336, 0.019935164766655574, 0.009025585888311491, 0.08606514691778472, -0.10612160096362365, -0.016638161157976127, 0.00736349903344747, 0.021131920691007822, -0.12311842386111277, -0.09434629044515659, -0.057500669644965585, -0.018184758208738702, -0.046257460019388436, -0.06323939678606762, -0.1583716146320719, 0.09728166839433224, 0.0015195610781627553, 0.03842226373632301, -0.04266457500364793, 0.08690419448274611, 0.02948116756343354, 0.07271727237245504, -0.030155506415311416, -0.03140085702489559, -0.05113423965856911, -0.07795292450461835, -0.057024335007544676, 0.015802584632359725, 0.0749120354016158, -0.08641757890836523, -0.03938749310677138, -0.005597078009898622, -0.02452243224639809, 0.05067904812052969, -0.07201623302264629, -0.17719785460090381, -0.11749349146927832, 0.029066828840065638, -0.011133401698272592, -0.21672723755674303, -0.1255407428128834, 0.08051693832494616, -0.039415722436116345, 0.06319374979289973, 0.11242903249767136, 0.18530727586964083, 0.09960494480454801, 0.02760830686616981, -0.17527349225110395, 0.0363306282592815, 0.08153120309778383, -0.1934099110647114, -0.32140320986499604, -0.17897256738658604, 0.03299334047251813, -0.15414322301332825, -0.20299359196341768, 0.003926098832257453, 0.15193425508640915, 0.17021986563699923, 0.20499516271360355, 0.1344701432217611, 0.025648298897179508, -0.014352474339091696, 0.09238186234394463, 0.03254728637676255, 0.0033536963590308057, -0.039708878729376854, -0.11575794311536187, 0.023529592229303776, 0.013050126906753851, 0.018698442370453417, -0.051158652014673026, -0.026855502112043305, -0.06490311697590163, -0.15874021305445457, -0.13842041721906254, -0.040938611801251204, 0.006493922440614154, -0.1355696269128189, 0.07407835778466257, 0.074833457718343, 0.12813880321243626, 0.10255071353479683, -0.040101354642791256, -0.05420321885517253, -0.10765128220224124, -0.05124655132668285, -0.10441269017565337, -0.020427858728546695, 0.07546303287182281, 0.2134236150167518, -0.051556385793508165, 0.001178356512944565, -0.05840291893528275, -0.007732340637194286, -0.003164007042062105, -0.08422313350395312, -0.08963605963419019, -0.004531036558616132, -0.16603892454712868, -0.029421493615053636, -0.10460037751425477, 0.04778172179709797, -0.04584236119166093, -0.12332686046320307, -0.11649759394140506, -0.06832823522446467, -0.0509431555891262, 0.015592584455776751, 0.04599957288703236, -0.014680747509220908, -0.07848496429501152, 0.012136055886144173, -0.02375294782593994, -0.0226827374010464, -0.01516835157841369, 0.10431696292932324, -0.06623142194768127, 0.06429762292198167, 0.01858839465620251, -0.005226879338586614, 0.006819388596491985, 0.02264658538610051, -0.03898740748995391, -0.12536584540544563, -0.04018939674556214, 0.01414972559566914, 0.011682581252729841, 0.08402503724314216, -0.0412788645814727, 0.04236456270829973, -0.0003502282986235851, 0.01955412199380849, 0.1105703041142085, 0.007277525857158714, -0.0514275929101777, 0.0078113102627815085, 0.043717099509380804, -0.07866564101182429, -0.07316727259064515, -0.0016631252567719235, 0.09486204235367673, 0.12836113558631648, 0.04941579269495634, 0.06585636139271583, 0.17124150847552425, 0.0376770335053847, -0.151518783891439, -0.09619425662680675, -0.027961635590063677, -0.12842295201360687, -0.14713106382766342, 0.06753895729743098, -0.11735354184865493, -0.1901924966881581, 0.03212563975501546, 0.07161682799434188, 0.00937574940636983, 0.25607224017742025, 0.23936244485717434, 0.12353792722497596, -0.10559299762215918, -0.1031914262847628, 0.2734629964423896, 0.20103717369560695, 0.03700268407085543, -0.03214868205520522, -0.02299460934961117, 0.09772105679097617, -0.01550468822012583, 0.017734481461297445, -0.018667252387734052, 0.10421518071147087, -0.030574211215759272, 0.06691702767500617, 0.07516589351163344, 0.16820797288502556, 0.05169811056463588, 0.022571888623609645, -0.04345631908253366, -0.0030375550866928508, -0.028512156972273106, -0.022498535263636894, -0.04280268414188396, -0.037517253319699254, -0.08970680500904026, -0.11749855634365673, -0.12405875504321136, -0.08813631908998125, -0.038884028016259266, -0.049533437241952576, -0.1565063084992195, -0.06526241856067722, 0.07313585148485707, -0.11638617877254323, -0.10076369072645745, 0.0327166061720432, 0.004389990475617715, 0.046694427801879095, -0.04903411930354189, -0.0912705547182634, -0.07466213041056322, -0.05801008277538591, -0.05494238011958313, -0.027396457361766786, -0.07173547290098145, -0.08547446051419468, -0.07406837289193655, 0.05859407368362693, 0.10764335515214951, 0.03207592160144295, -0.01589257168522317, 0.06970484772586752, 0.13451005834798363, -0.11499585498874307, 0.05759881205494343, 0.056860730915547934, -0.044347987130814615, -0.06655111237613358, -0.1380341621109953, -0.10318433022890697, 0.17171313612166816, 0.1558266977209603, -0.1363559330266773, 0.04971146064745338, 0.13261077445056965, 0.1419575961703174, 0.0005115492617115894, -0.1787033551507063, 0.0010118314879248099, -0.06356037164797942, -0.1454544741423604, -0.01959809650430419], [-0.011758819120585108, -0.08318744671603572, 0.023486855066562028, -0.06260287885735953, 0.08776775405570911, 0.017964770931569816, -0.10931641494255724, -0.050199268960233585, -0.022648720012139592, 0.014040944780137272, 0.1287534972240608, 0.023861835646936797, 0.05868559607054779, 0.0008822077389668461, 0.06508644195809085, 0.008257921822385154, -0.01935385349540104, -0.05463977462368889, -0.045588183943571524, -0.018099206579576515, 0.042094297355141676, -0.05335824685093743, -0.038375775145447225, -0.009951437095285783, 0.0069969874009064145, -0.029014485596655502, 0.03137346715590448, -0.047932982136952317, -0.14523972803276883, -0.02726862374438822, 0.022869393612216984, 0.07889162325659264, -0.054208264771901986, -0.011472189833978642, 0.05447622533945802, 0.12471752967549464, -0.008744090205295103, -0.05668193903233233, 0.03308810532350314, 0.042230517759954435, 0.007935460247143493, -0.015776090020464255, -0.06735656552513991, -0.03504792880599721, 0.023990303515929602, 0.036793865215021024, 0.01881000003947919, 0.013542963452401986, 0.03413851066969999, -0.014144747889370807, -0.05403351870629622, -0.12527866343710772, 0.03981039114011412, -0.010181477553321664, -0.0249312486217336, -0.0022989520624527087, -0.0774669022399011, -0.06555585552484718, -0.11583079287956886, 0.020463119330885966, 0.04238143505268211, -0.05136154492826357, 0.04143032600333692, 0.08528135623746991, -0.08144150973389302, -0.05651711886248254, -0.007742605968735719, -0.0712438079075585, -0.06392047876547409, -0.07734029422668608, -0.13297561811378245, -0.10352707168297184, 0.01115573901366625, -0.06689449636197477, 0.04788906723998652, 0.012116156228353955, -0.005498005648730923, -0.11458882767515104, 0.02296166761800686, -0.030785851810222628, 0.01289623135326373, 0.002319393179227391, -0.020374461299951605, -0.07331394608074185, 0.06484234662389889, 0.033933556399978144, 0.04689038795317345, -0.00814103432996019, -0.04117347072960545, -0.04476507946974765, 0.08163052399997044, 0.04527134567881315, -0.04823715902264745, -0.22439535645516592, -0.040594935522335646, -0.022266324732072035, 0.018388262198131878, -0.025774147507369775, -0.01269131154657448, -0.03197574024567968, 0.18632663677849673, -0.029743601564929407, 0.10528000319860711, -0.03701123190075298, -0.10157972587915781, 0.16469139755403406, 0.020773571879110907, -0.02471194398742353, 0.05857227447065997, 0.02461048373517263, 0.02802035875757906, 0.026124262085626643, 0.010809837855180797, -0.01665234405974949, 0.013515032776826726, -0.04616872204461013, -0.02493975055141481, 0.05774593422272487, -0.0489794042923422, -0.002453911174701589, -0.06993291543908839, 0.0782913612612445, -0.06635610745359477, -0.05185436610430382, -0.06972023101962967, 0.05213611029087319, 0.11621505252969389, 0.07816087977489304, -0.13748730418020733, 0.03706247163045826, -0.01796753770583154, -0.05588363250358141, -0.06811387195482622, 0.07176149088432247, 0.12212885706024151, -0.05845174050099537, -0.00882066707231773, -0.028771538977617, -0.01295731814087163, 0.02112057823767332, 0.02579315671720052, 0.05847535614615206, -0.10370466890535082, -0.007154502149935542, 0.09805728960726048, -0.08864286246413608, 0.030843741686918526, 0.006865463341583288, -0.09682022202078809, -0.012681076042667985, -0.06975681533601516, -0.01073490986680475, -0.05303605752119181, -0.016930392290750898, -0.003013904784204064, 0.012802974026542643, -0.014731282214548592, 0.18358150714168467, 0.05859417311424266, 0.07023476803134837, -0.061751923667828744, 0.04046773318709177, 0.030554718161367532, 0.053453414241877266, -0.024559275871001027, -0.13364492371829578, -0.13208982102158862, -0.03509348836070912, 0.0006656576479265667, -0.013559691256940273, -0.1474554592546905, -0.11764675052592363, -0.025076349402415026, -0.08302408384833496, -0.04212111594589777, 0.0053178398122984355, 0.008213958852647913, 0.0117431139724121, -0.032751633276776694, 0.00906218828648718, 0.06133268807073086, -0.031064924429779237, -0.05093647352505323, 0.04919823410257147, 0.008562707304039956, -0.097320663374642, 0.0259323237033451, 0.008159785339779825, 0.02839497123709358, -0.0034218578580949245, 0.08835355993821009, 0.10810392044690034, 0.04431250941301791, 0.14444661971953293, 0.02684293659849052, -0.05839055178946689, 0.19345729635056363, 0.07048334735846261, 0.10261174360380813, 0.034029053133997095, 0.09442337404834567, 0.005232809407107205, 0.028855356124962765, -0.08248457094389355, -0.027045383844330594, 0.055702101675368064, -0.0725786084557477, 0.0051806175224659405, 0.07050349162064364, -0.11609446168854505, 0.07569936088084714, 0.11038286112387209, -0.02083066653066037, 0.04246612066092886, -0.1740115386934864, 0.1292095368369179, -0.010339635136444281, -0.0608441249104547, -0.07694675491400925, -0.10988968077897969, 0.05285269216753995, 0.08300600599508613, -0.07964014326703105, -0.06217364182851385, 0.11692898654206126, -0.11841916117230643, -0.07558799780395531, -0.11956103857475534, 0.02796330775980876, -0.11501968773748036, -0.045195556115917745, 0.02233947543376125, -0.1794644466735727, -0.1250306132157104, -0.10342579177127507, -0.0030477310130197616, -0.10914285549214886, 0.04974351392728533, -0.07607748209579768, -0.05096784895527039, -0.043543347322584816, -0.004069448478981099, -0.026324722872741325, -0.011266032888984468, 0.043383790951301876, -0.08411659884046294, 0.03182683904264261, -0.03960419268988312, -0.0068322051617794545, 0.0901390355026544], [0.05052992693744019, -0.0210313488023163, -0.09540754322677215, 0.14296630064981342, 0.05613875727463393, 0.041391958088339474, -0.04486492413947461, -0.1225526684369119, -0.06303869403046546, -0.026084526712261597, 0.08930649400555936, 0.07597058416332213, -0.06589715689700633, 8.738516932454868e-05, -0.07904401321405312, -0.07061406257947814, 0.07482242241476643, 0.0011714581538334024, 0.07280212288258808, 0.048405556288273296, 0.010609246083336469, -0.030685926312012096, 0.06296253758190634, 0.0699373849991238, 0.06733192032276379, 0.1132638800438395, 0.05409005106027626, 0.06643287379965149, -0.08555335118203185, 0.009195019972680293, -0.04188566788559264, 0.06851066782840526, 0.05749133655528083, -0.07866071620276224, -0.05771413784485726, -0.10149923606007215, -0.04031321038977309, 0.07132522536822604, -0.06843642449095357, -0.019178553101643094, -0.11201909661690052, 0.049396277113060834, -0.008698220586489561, 0.06987085705394978, 0.07717856029720084, -0.06549264316981623, -0.06284424441565781, 0.010218102223054254, 0.03108163370450777, 0.12311893331662743, -0.005021854541665734, -0.12806475405841014, -0.12779479434052224, 0.00027833361334547594, 0.15815236169403096, 0.1920407574453935, 0.043447143999550804, 0.05565364274334782, 0.18284810029983287, 0.11250889798408019, 0.14573965339449985, -0.1406227158417194, -0.06803994636753458, 0.12952673520893554, 0.1306413300546746, -0.00873325616535486, -0.2340679172843482, -0.20115992123693488, 0.10596916233547868, 0.0154360365035384, 0.10757257832526267, -0.10798373813370378, -0.00036311280145132616, 0.10492138800496627, 0.07617271796590756, 0.1502922061660767, -0.01578863540844162, -0.15786781987626974, -0.19932019264642328, -0.1742034915901357, 0.1823884277328557, -0.021755285831703174, -0.02908219154667791, -0.13066883005152347, -0.07299702357966247, -0.03852669052177546, -0.08284384691478275, -0.13034979253991216, -0.09236070973136427, 0.0488347834351152, 0.08959110859812523, -0.05082701418163484, -0.02120088654273261, -0.09126570602534292, 0.1020732702132062, 0.01482918180933803, -0.04891446326499468, 0.048865848303455035, -0.17521931064597282, 0.03570620425548033, 0.0794147477445141, 0.1473783743753321, 0.06848264202444286, -0.21872735152894096, -0.06141736450480775, 0.08451932506479985, 0.06898385142559242, -0.06062031702000777, -0.10601015281431053, -0.12042834605176107, -0.05870342397525371, 0.09286956686043966, -0.09596324881971116, -0.04611628398127995, -0.006920917642232622, -0.011896010195657569, 0.09236863578368872, -0.016942445507740062, -0.08405217922695006, -0.02225000820783952, 0.06052034487544102, 0.0045342320557197275, 0.16119353353255506, 0.10368249433334799, -0.035844012386739774, 0.035054334544010704, -0.07709915688199817, 0.003113034237822616, 0.04701266403121506, 0.12582468087480525, 0.003365855460061393, -0.075352637078918, -0.03599745040352637, -0.04554876967646377, 0.1122166689504401, -0.0011067307234151837, -0.03742321884873666, -0.008833571479982143, -0.033390002090244564, 0.044001448480390226, 0.041332898050835364, -0.003525338539139428, -0.06512384055132968, 0.04037631514740093, 0.01493344040405681, 0.0585497359278903, -0.046762774198320874, 0.07904083315967227, 0.03467311094024043, -0.06206723355123626, 0.04726842954426417, -0.18566856627651945, -0.11987744536343574, 0.06895462878674165, 0.23078087259193902, 0.051803350721102155, -0.17720069900202737, -0.08338607294332637, 0.05472917801063703, 0.08760897641105463, -0.005145004690501447, -0.05995060011509925, 0.09165487797237327, 0.062364416311600786, -0.0873211863132114, 0.0632645578788854, -0.10377883737991839, -0.02683082833633251, 0.018813878315641495, -0.035926060550966823, 0.12566439145523628, -0.0051050868262653235, 0.13779824912408883, -0.04210102398619263, -0.028840360086726958, -0.03933395908685943, -0.13448520511012643, -0.24943814825631985, -0.14328217339461952, -0.10039145485950253, -0.12799823108841676, -0.09945653035445161, -0.16576088678609124, -0.20144561415157924, -0.014130880005320909, -0.13023859100257823, -0.1492735688429469, -0.12973368486294468, -0.08651644535337404, -0.010749457427955451, 0.01069803776771239, -0.15781632984678223, -0.16654280639132404, 0.009853095511962803, -0.1338207863542272, 0.06826591443906829, 0.020384020544859268, -0.11347716306550362, -0.07244055281263519, -0.11992998689604954, 0.08734493692023759, 0.06743334031693755, -0.008615854765088358, 0.04420829211046818, 0.04161532977355189, -0.07612617293557215, 0.23131960366485843, 0.04870466531063498, 0.008603690896974934, -0.04213594950094805, -0.004072128284120485, 0.17377764962432904, -0.006782097516508336, 0.03615506236190906, -0.09357131603426659, -0.016691988691819065, 0.12441087287628244, 0.09643904583291746, 0.054168861049726895, -0.04141953529746102, -0.13772105376235164, -0.04383663773961196, 0.05146564322320444, 0.07316297131353787, 0.05089363417993668, 0.004415369825041587, -0.20618201011639276, -0.19936818641594584, -0.21613828836940105, -0.15737497335715672, -0.06363599767311617, -0.051525889630357834, -0.3101575105513104, -0.22006586349029608, -0.06199891385618732, 0.11338740916572189, 0.03912717750083961, -0.25927138496602264, -0.025798587646886664, 0.0928754140620788, 0.19177207694517606, -0.007002099315959727, -0.18081534347277156, -0.10202492165435152, 0.11933484059096017, 0.06695227881046015, 0.05321215674446941, -0.021923128062399218, 0.0792816312926925, -0.010920880702063332], [0.0353533459345712, -0.13508773857330855, -0.07305767025395539, 0.034304536813896, -0.021174421584986253, -0.038984622340882714, -0.10599209271242727, -0.09543293561748008, 0.03320685258292105, -0.016487297371233927, 0.1024795952596984, 0.002697829609408768, 0.015831786127774104, 0.13997615349095474, 0.06440654108178316, 0.07909542911252238, 0.0060625783644271776, -0.07554357079846244, 0.09288847760748534, -0.049915505609994096, 0.04366895591140068, -0.07736885956217007, 0.01872580240570625, 0.09277012856659438, 0.1390136639087033, -0.019018851713378363, 0.04664658482720925, -0.02580538924023037, 0.03927383039532679, -0.0370555163173878, 0.05258872630513414, -0.007193759250826447, -0.19949466775866262, -0.08302906609173319, -0.04828602681985031, 5.755171782266763e-05, -0.17262869593089672, -0.10508627204111938, -0.1670695965386834, 0.019519773490310584, -0.06971208041925159, -0.010871347254798271, -0.03220535887526903, 0.014185463127458827, 0.026111676776899816, -0.10920263513455575, -0.015100792989047726, -0.07530704486951811, -0.06930662711129393, -0.08797365636412154, 0.029295958582959976, 0.25413938759099225, 0.11152422313626907, 0.1924559152483214, 0.11655544548491689, -0.025225885165406678, 0.10568671673596362, 0.08143993959714385, 0.0921426886881084, 0.10295831411743994, -0.03963889530550249, 0.1610469696125309, 0.20188446379011535, 0.020123162777167865, 0.017632737033473674, -0.07382602514018446, 0.17506771868128668, 0.013263104151449979, 0.006288622212762832, -0.014406309152665638, 0.13592422779199279, 0.15649274459055013, -0.22138999345944352, -0.12688412437847368, -0.024707438626417607, -0.09335712779407111, -0.08333992642406837, -0.18559910614811942, -0.2925394859859581, -0.14832640901698574, 0.017920159326273048, -0.015285241217535514, -0.01591026453504693, -0.2334605218557814, -0.024405556590440736, -0.004884320641171529, 0.04664203850805434, -0.02680107857359445, -0.08143418220387222, -0.29529164735515473, 0.07809010144416058, 0.05837911773900167, -0.07751553972289943, -0.10589061347671633, -0.13865823437593727, 0.1449946108873398, 0.046083981936058366, 0.1061940504454102, 0.06368527515417374, -0.019883569871593502, -0.0712682718831087, -0.08178646146041066, -0.17365420569469608, 0.004578136565612089, -0.08313228454124429, -0.009847790406402103, 0.01162611418950174, -0.11605136961551166, -0.011521704602493705, -0.09531657488238435, -0.09011269531130353, -0.04725923793707518, -0.18788726187772423, 0.03306368800035535, 0.12729032719828715, -0.052421668807431696, 0.004593087798952875, -0.05487276282186179, 0.08352807279056, 0.032849892194177915, -0.18145622018197724, 0.023103782150569626, -0.014226944382321154, 0.1613583649354146, 0.058482361786510964, -0.13656481162140746, 0.010458668513669245, 0.13202574428577235, 0.13542762854565027, 0.03907146659181152, -0.06500495044224154, -0.003334750772335381, 0.057467567529888054, -0.030084520921977106, 0.12276926137134193, -0.10246718263963173, 0.04074202232255595, -0.05250986541040874, 0.0389143047087334, 0.10208765516797239, -0.06460300094013033, -0.07191055466459279, -0.03962762840042207, -0.07123655240215851, 0.04149696411774868, -0.15335323699034653, -0.0631421952750995, -0.12615587355817845, 0.048647686723725284, -0.044290328810378456, -0.12756179850416588, 0.07138639396939916, 0.1733131653062407, 0.1832419408935553, -0.1643429765586021, -0.0973276384596816, 0.19005207182204326, 0.04410581562836212, 0.10379068052870587, 0.0768059941147477, 0.03372927683410865, 0.020494956402838264, -0.06926722213132724, 0.15495849892995747, 0.17254077691800307, 0.04576696131278339, -0.07760087477681707, -0.07380326572982311, 0.09308957753920918, 0.04802092653187076, 0.07828258421190046, -0.14497251912265, 0.08625390033183153, -0.00207876184455289, -0.09063310844954996, -0.24401336098759513, -0.24040207962217125, -0.22567521893548448, -0.11374176938647988, 0.04502380344086041, -0.23010817406649378, -0.05591724088972471, -0.15620552330245663, -0.010528969762681192, -0.012270890028044976, -0.03438223035081332, -0.18821391311541358, -0.20662047743423942, -0.000822413517119894, 0.002645098997814303, -0.16684804784104354, -0.21581465477534748, -0.16420833437676202, 0.04207682892317014, -0.07361114004077587, -0.02163678661237645, -0.22933185552970384, 0.0448235836591916, 0.01631171410790868, 0.07420947715343203, 0.1185582686923442, -0.015112400348241812, 0.0240747285438507, -0.012122507505350473, -0.04759231368647333, 0.009704495099459498, -0.046625365413416706, -0.031612648197202824, -0.030686283280438598, 0.02755346127736116, -0.004081507283525045, 0.03364223423594399, 0.039285916351020286, 0.06501400522152062, -0.09170652405520979, 0.03843748730643452, -0.04835875216315276, -0.013039906362811583, 0.0840862559352989, 0.03300616824238649, 0.0390579188819882, -0.003995579724501622, 0.15277618690391953, 0.08864171793370486, -0.00131284471074302, -0.2236035070616405, -0.27984189120330066, 0.06673670514836627, -0.1069289468423396, 0.09115324702247143, -0.19007840946524107, -0.1484165549273142, 0.056466525703323306, 0.06095998281634416, -0.0019455507320383157, 0.0010095173944924818, -0.008083868581588143, 0.11907584434396828, -0.16538021609098372, -0.06445039706866894, -0.0031863540048438633, 0.030290768617940715, 0.034816737563784096, 0.044125559698534315, -0.08662823659940615, -0.06194350463990968, 0.014971668177046243, 0.08671573614189633, -0.004992583467201764, -0.050149979568359405], [0.03124039008241358, 0.10663352333048062, -0.009622108449533205, -0.008718812951950735, 0.025255406968151387, 0.07203624828500593, 0.018377073399329428, 0.008194628609389364, -0.11966197664583368, 0.01736994372368911, 0.01372423402252686, 0.045745540171987245, 0.0033710164385088383, -0.03312073823583769, -0.0379959945381281, 0.06525433387305887, 0.07622975440853648, -0.04453660645916627, 0.052283066597266024, -0.0898520088666527, 0.07529225262236655, -0.03967969580005022, -0.020980285629426342, -0.035399874110323436, -0.14042082100199021, -0.03035493683939368, -0.0629430420996365, -0.09023729007345183, -0.07837768092351217, -0.07518257865580465, -0.03343305609950841, -0.06593582599764013, -0.012588507842900519, 0.026722622249029555, -0.02423725507613229, -0.09277189328600194, -0.13400851045200057, -0.07928960069914853, -0.022626612852322963, 0.06311159729584402, -0.060134881147381115, -0.010398951801822215, 0.12764501385965046, 0.08407434328149557, 0.10045530408647083, -0.03816985386885521, -0.07377199692048289, -0.020728082663890954, 0.1349307077247136, 0.062049668227884595, 0.4517234714731874, 0.12989319269889354, -0.027885066813887915, 0.0422031205628706, -0.05093795385929386, 0.0971594983129528, -0.0079937881025979, -0.00453279233824336, 0.03998171385356997, -0.11568267804771244, 0.060054658794106, -0.036353978483160236, -0.026461955925103777, -0.04204734871812657, -0.20012387895137845, -0.15998608262963826, -0.009500032245062942, -0.05209315125856599, -0.09552706123163585, 0.039042437190154246, -0.03918647778106165, 0.10862339295185323, 0.0761982574621629, 0.15776454880868862, 0.05903003973894665, 0.0977845120167879, -0.16471382571728638, -0.07469838915037873, -0.011680864104761815, 0.04998926521693616, -0.010318403735084917, -0.19392867944315428, -0.16136042382620233, -0.1873046509798771, -0.21065507473817666, -0.18247394932435054, -0.2142843598444215, -0.21967344436702027, -0.07526135869682704, -0.07741734079519207, -0.2896092522701829, -0.1791056177302206, -0.12707087004066303, 0.03760612293399112, 0.06346266644170877, -0.2776364325899042, -0.23754370313368534, -0.10944019390671474, -0.03302973762389822, -0.022119265653375738, -0.05567821177889415, -0.052588243417926006, -0.12169889030645356, -0.16334011970507187, -0.25356476720352344, -0.10167845103645866, -0.13868672312297736, -0.10768974973063467, -0.02756799894285449, -0.06908791822450196, -0.129934866478183, -0.13065098151730511, -0.13323928158954482, 0.1398481186633539, 0.12227326080616623, -0.05017945190326277, -0.05082547578011, 0.04419608350396103, 0.11923317763203489, 0.11759780115786085, 0.0059910902492893645, 0.01571970944882908, -0.03381125219125208, -0.021560781019949356, -0.008604450981480759, 0.001991442131551089, 0.011869626138355677, -0.10280267611820768, 0.029431895893538073, -0.06966132218942299, -0.11924344620713877, 0.0609391921555209, -0.09284730497819729, 0.046942435784043716, -0.04254775573687842, -0.07973950028821104, 0.08790881701866012, 0.08814445581736728, 0.0698999962738595, 0.020492276910297702, 0.06055925088759785, 0.055225422313774725, 0.05367142514196269, -0.12596101615039706, -0.05008557450210191, 0.1272439966760638, 0.008297832772134285, -0.04214333145780215, -0.036429350595099906, -0.03709270268714189, 0.11298212856587284, -0.04694254689055788, -0.056617402026877574, -0.1658218915867304, -0.17512474797905936, -0.03334233417178718, -0.03184517363151363, -0.07164558362114996, -0.1082068091021026, -0.1581231070800695, -0.04393084972443894, -0.1092997244458865, 0.1098567549105136, -0.05146698372632552, 0.05481984635545412, 0.08947565463469302, 0.11201562444160112, 0.10805475476001318, 0.07368061658973053, 0.045491501167978725, 0.08187709092673222, 0.14541813975362655, 0.1595843139952962, 0.13110992174800845, 0.06260590430233151, 0.06538716386958696, 0.09521540186543252, 0.09664581439305438, 0.15278745652668585, 0.06173201316940232, 0.10616283745037115, 0.06860114292443409, 0.04455068021182412, 0.21364756991245215, -0.022446455222382592, -0.058209695893787855, -0.06610231037527646, -0.013290638078745061, -0.05691161380417557, -0.13787003873453188, -0.10653722192785038, -0.058814684253493864, -0.12389820779437886, -0.03753556896372097, -0.033767295602524935, -0.09616552785682952, -0.11930015692780613, -0.015576455783069335, -0.05601208563491265, -0.09698887268462458, 0.07648427127200225, 0.0008349572798151647, -0.0085089738463889, -0.0011630865090288935, 0.03250583649811329, -0.009638307301858532, 0.040755656170807224, -0.07404690846368862, -0.0015043175996018, -0.02624528068883363, -0.0878836742410889, -0.012643384205855366, 0.0792256827621569, -0.12345776626252569, -0.1284624846596652, 0.06213219577454288, -0.12661801461456437, 0.022363919410818747, -0.07423576998935252, 0.038657967368410914, -0.04299684887106742, -0.0707342609868538, -0.08816402357198372, -0.0613301461366361, -0.07186122467015305, 0.2981873588561762, 0.3271264093343171, 0.3019330834164487, 0.1291797301296095, 0.0010045934785060202, 0.27143694624379483, 0.11583402461271264, -0.1777980792671579, -0.19052754754590623, -0.05928753115133693, 0.14353903988195757, -0.14698043062152982, -0.2436807954325235, -0.0005028910609517789, -0.0651760675983664, -0.005175010463296033, -0.25954655756507355, -0.24324549251288125, -0.029737322180344226, -0.12794295872327102, -0.21287266913151429, -0.20640156193560535, 0.00997545315922709, 0.054278513419190495, 0.10282324030925678], [0.04395632861689639, -0.011721629120316544, -0.0007090535000446692, -0.01968156816452216, -0.09681928007342648, -0.10824339207832018, 0.0887336478052931, -0.08294594564785578, 0.06711633484471351, -0.08611033507831291, 0.08561805390978798, 0.09623015687770002, 0.008681253259277256, 0.00969010437428117, 0.0769703942131257, 0.009289838039264487, -0.007513592633483159, 0.03423325442620356, 0.005096609677901618, 0.13927531400576404, -0.016394303439378168, 0.009073784776952941, 0.024339479601760562, -0.03750188994377724, 0.07184672472339311, -0.03876447194687926, 0.0075189152733176065, -0.08058224210252539, -0.06754927831489123, -0.1374581683594517, -0.08419747518303382, 0.015037092566390943, -0.056839430078986994, -0.09453223739926253, -0.1134972986109926, -0.0247747282455355, -0.0085684996090282, -0.11214947809560695, -0.07908641093529573, -0.12178550529377646, -0.1446301697898084, -0.07311089254303527, -0.11377021779259089, -0.11686264233872543, -0.07967306471952088, 0.05481279843007155, -0.1600030919020765, -0.027350579346066602, 0.0012063192887711489, -0.0817870320339687, 0.1438931347121015, -0.06436046853897479, -0.02936629902750912, -0.005102992451495848, -0.05433711088096232, -0.037707624915318115, -0.07884220630126008, -0.1368902776572126, 0.04394022810673631, 0.03189587687614609, -0.14568894019842812, -0.06479230078520089, 0.08339899834338818, 0.15660861618070462, 0.10463093683670525, -0.12555926441671372, 0.06300904586893134, 0.053697547445070784, 0.14855451699221392, 0.12771735200694231, -0.039202137002872915, 0.24982252538802702, 0.0096037676778626, 0.25945510207242184, 0.04278034584533223, 0.006417319587491877, -0.08336661656176561, 0.11566422275188071, 0.23794998408616957, 0.3643885666943298, 0.006867443084515799, -0.1777715085815197, -0.003128526465619442, 0.09721385635462414, 0.22981529813585697, -0.04737381013760676, -0.07842706995974486, -0.09120356611007206, 0.009141631831720766, -0.046564724471117695, -0.08707168618705413, -0.0874631818141514, -0.004150448183197745, -0.004530259276924879, 0.08727403155605282, -0.35386954744145327, -0.123394831183225, -0.04058969851236632, 0.051293965243886325, -0.0024523756407459495, -0.010254606206200853, -0.020565993581984916, -0.045479073778406515, -0.05588572446185105, 0.0348631477325901, 0.01655792068939468, -0.11355857145993595, -0.12915950146931246, -0.1822203833274083, -0.07918294134227481, -0.23951028674078098, -0.20458850894130287, -0.11428945671455457, -0.041593483601240794, -0.06784896019768806, -0.2543770996183475, -0.15359939652096516, -0.1702787991220863, -0.06776526001952343, -0.0316900113884312, -0.2848523942765556, -0.1738098342883173, -0.11019307119800467, -0.15389488711415164, -0.05694169256638954, 0.021768628611144897, 0.03791358313836941, -0.05508408516558917, -0.24202006296773657, -0.07019034301308633, -0.08972192999841588, -0.0504459827423469, -0.06489783995390044, -0.22216530387480926, -0.06274822407100997, -0.014427902693312851, 0.0745765012919029, -0.04819474976513863, -0.0792795158561983, -0.10292169627676581, 0.15212278984591193, 0.072044198839729, -0.024744117816802864, -0.019300855515842975, -0.001041285291318267, 0.07648371520386478, -0.044076420940567594, -0.1127417038860591, -0.038670036188248824, 0.0562151136186082, -0.11512931706987266, -0.10369035705023245, -0.22900778902102364, -0.07296825375915147, -0.12172273233120376, -0.04166672694984254, -0.1788841755543825, -0.13692964756382897, -0.11003350638045001, -0.12710367661205973, -0.16560104225590191, -0.07681682309698404, -0.08168020220273138, -0.2230207085774592, -0.23228648475098052, 0.04713092660825767, 0.15734824029190106, 0.09575025070275518, -0.1429817858873062, -0.22227959025634875, 0.0003598133127076947, 0.13263067546305607, -0.028295841675450552, -0.0628284776807292, -0.28066780584777434, -0.08051381712211385, 0.03309936959981889, 0.19474131996635005, -0.003031790566741004, -0.17350570749120248, -0.23361494650377584, -0.08127221055311812, -0.04669397014836066, -0.02707074357169479, -0.0982213553239869, 0.06739159254828778, -0.0040564147700875705, -0.21970757606629682, -0.23607654432292668, -0.2643507146912131, -0.02446331260678738, -0.012334230067654989, -0.0593264624809799, -0.13069773815005054, -0.05022511546992964, -0.0972955435216587, -0.01821125784685349, 0.03276727010133264, -0.02725770164179141, -0.1014836191011556, -0.00010073980734737144, -0.006608496641946246, -0.10408330171516596, -0.01495020429655762, 0.10534525368093442, -0.011709133521150742, 0.009667549852713488, -0.02369123937930013, 0.07660175318711568, 0.12968209464492655, -0.00509617435570634, -0.01864349190816028, 0.11666349642644334, 0.03210749253313039, -0.07180115985509844, 0.02019946169760966, 0.0025139257797009307, -0.03698256690328652, 0.08384201455352937, 0.04113661532247254, 0.10525810541720611, 0.13017793209706152, 0.04620780744645641, 0.14923077844939234, 0.14120185504879496, 0.08706854400316072, 0.11968332206674559, -0.010060269712731973, 0.15255569316748407, 0.0994956320244476, 0.01978877591069614, -0.003243489318857949, -0.08641980048512193, 0.1480012351493853, 0.02160660332520152, 0.18117639665986968, -0.034587503337033476, -0.10513120413693504, -0.007978663694117297, 0.12279617910346796, 0.11888013893396648, -0.15081240951052013, -0.10561719334529204, 0.055604242842880236, 0.08236271010853635, -0.16000058260895825, -0.26229730504672344, 0.0900168235248592, 0.16170794252002177, 0.039307784477587544], [-0.021189542396985103, 0.10019029391309496, -0.05798001584704678, 0.030446609948651414, -0.02030059387513753, 0.11403902020453575, -0.2191692131227021, 0.01553644883984504, 0.07312618264020031, 0.06643726343218138, 0.09584015146298899, -0.06743597827601176, 0.02001477053792452, 0.06985066654919538, -0.07320614425033864, 0.05445845667427211, -0.003954052640281712, -0.057910223908645565, -0.025946089403553547, -0.0646093318267006, -0.09709831213124219, -0.04800080708445077, -0.019578460273633545, 0.10926553747360385, -0.040555531862227, -0.19162835350088944, -0.030231932788044286, -0.05133746440122037, 0.022400329729285427, -0.03770258880312266, -0.1515543995029417, -0.10933918895310821, -0.045943915859695796, 0.1065344919908021, 0.1196268442814348, -0.03848449074178323, -0.14691092754354332, -0.025927902655109678, 0.10071424211576616, 0.02032734378452657, -0.01858786843262786, 0.06395723470918274, 0.1217942639693024, 0.2703379682665266, 0.10579718610415993, 0.15223745809738032, 0.1293410013130544, -0.027738675993165235, 0.010233379500086646, -0.07023285583803268, -0.07622120807055444, 0.1516393782405244, 0.18222836486899185, -0.023370357731282237, -0.1973594404219173, 0.06400703877240199, -0.11979670150338317, -0.14956327094141766, -0.22785486214433134, -0.2658492430527537, 0.010719753293398379, -0.20876256704675553, -0.2829969308253162, -0.12572249489794102, -0.23836560683208755, -0.19337673917064724, -0.11898919067962045, -0.068019743881378, 0.00034724703493301933, -0.03716663681507112, -0.13008967745150146, -0.12203252954645792, -0.009364736645858577, -0.14385207960967084, -0.18378360882395778, -0.004585098227321439, -0.16296913969848598, -0.10222304653432235, -0.06769781043035196, -0.07416933356614565, 0.03490107359867141, -0.14092364859305526, -0.13363781798491617, 0.03993694454851296, -0.16087641509789882, 0.06050403187416075, 0.17164100353278688, 0.20092648588810602, 0.03522870723371191, 0.002526194265904343, 0.08734141634926722, 0.2238804316742781, 0.196615181909056, -0.07111422080524804, -0.006225285491756934, 0.3419455193199815, 0.06050599073027656, -0.15341911788269358, 0.015092517265357413, -0.06318362671445028, 0.18771756589499286, 0.03906148351793074, -0.08473124780699749, -0.15129436022949688, -0.034211556760161244, 0.0037692667354507882, -0.15283374262315688, 0.002991092057788647, 0.054730347629881514, -0.036949229962647726, -0.1461136483630207, 0.05035661344659067, 0.189714161259897, 0.15465027286567454, -0.03297872464960924, 0.1043774261762999, 0.16596957327971953, 0.13329814173464832, 0.07305372010918494, -0.07083598661207627, 0.38159405805707125, 0.19030821632683736, 0.07762255567371276, -0.04568898289686762, -0.0863742163204955, 0.164122681169255, 0.0994749949624564, 0.003968506773920193, -0.08257935151278478, -0.11017201333272718, 0.026060602164605342, -0.03955660455866663, 0.026057155777095605, -0.09785837828628788, -0.025522365852265878, 0.10299870874400614, -0.06087647731842646, -0.003787433377686802, -0.0527518280058809, -0.08370888124025773, -0.12582718825937414, -0.08812115397866797, 0.02203334003434456, 0.03214055419742927, 0.09764136763203916, 0.12110465772626976, 0.13263906676907614, 0.06304474429817046, 0.0838339419529092, 0.0494892011208538, 0.14454012254370283, 0.1625119358558277, 0.2236072298013492, -0.06519102146757157, -0.15601531845790964, 0.14345016019118906, -0.018009516721209685, -0.17599258212809687, -0.2030264897097216, -0.10842441865553373, -0.15319542755724508, -0.03637263364324147, -0.09643223394288543, -0.16266932930391972, -0.012520391395424393, -0.07333527931864425, 0.0701055685714667, 0.1768903414957382, -0.10394965634049201, -0.14260205616853835, 0.37042204047473143, 0.29801605704645284, 0.008385304571552512, -0.05754480950020754, -0.029901908584082433, -0.018958775742479343, 0.02611223655963553, 0.0682087976817362, 0.1176377898667313, -0.004954833168578725, -0.17278606243856362, -0.03280148920622674, 0.20646058349554522, 0.018225964287655588, -0.012327994569323262, -0.1380642582643571, -0.018693178185019067, 0.16382813896968976, 0.0272504426023037, 0.17758798645517312, -0.10967967475384532, -0.040741366802649844, -0.13971977984612735, 0.04173073267202448, -0.006719237881120054, -0.14066948013557706, -0.13263303189264897, 0.018869085527724257, -0.0005480219219353215, -0.009628475741210668, -0.05985388445581335, -0.08648987496357399, -0.10312536909242452, -0.1344694808234529, 0.005529532792750862, -0.002537212596505798, -0.08275364029720021, 0.05660646011246424, 0.04783129802109739, -0.06333947311841949, 0.07675672978368217, -0.19886897590658958, 0.0065612934043570385, -0.002157512991579862, -0.031328172164819944, 0.1217463606247207, -0.018236566321646618, -0.009972525523262747, -0.07028084714725709, 0.022481996448712543, -0.07948239138081321, -0.053029793556208744, -0.09079496211874678, 0.11053985433860151, 0.061314198120524965, -0.014797217953185548, -0.23884918170372804, 0.14897588103979778, 0.13605804818215733, 0.14934709004646307, 0.0247091030274378, 0.045067588186369294, 0.22823427567373872, -0.11317882521690334, -0.21144746507029166, 0.12062123120163287, -0.014396881646922786, -0.06213605849216432, -0.15137510929484538, -0.14088121307497742, 0.06500843307546472, -0.08146032166674862, -0.2022663151903784, -0.038605850223763644, -0.009292389335017326, -0.097529131360794, 0.027762015988340192, 0.11452120751901243, 0.04628430194423697, 0.01983005484321655], [-0.022443593750681386, -0.0018789988830482968, 0.008773841626616836, -0.008983687330261367, 0.030925452027343644, -0.022156492783520533, 0.011399965263416795, 0.04909777133447559, 0.015362708898582754, 0.022498136839949827, 0.04994433185638993, -0.03945672237658894, 0.09283132749660154, 0.010248194935376256, -0.137935014654546, 0.014955884319309476, -0.0822052413720272, 0.11413944966728706, -0.07934107820661708, 0.06925313317617887, 0.018772156765829693, -0.028355515478812748, -0.14525793123991035, -0.10555901420936184, -0.09032577082861107, -0.11701643624666741, -0.18203526819140042, -0.00042319025711794515, 0.03638631920853296, 0.12545699192697987, 0.03602540240899328, -0.00931193173442612, -0.053145213593647815, 0.014833344667149372, -0.009411718187755607, 0.03171130463628946, -0.14099259456778965, -0.013689310800355353, -0.05967656983546988, -0.13729342492320804, 0.0552151267612518, 0.02771582598491625, -0.03567336592250567, -0.024151406943256373, 0.04806264330829, -0.007135135820444781, -0.16448318882210058, -0.027872150014146113, 0.12170552833759563, 0.0478715848115916, -0.1350318137332506, -0.15841920771582418, -0.09619320777608015, -0.0997698258603886, -0.004669156879622482, -0.07721444554732361, 0.054029665575100604, 0.05117685268610691, 0.10019585585863691, -0.02701352528690487, 0.007062530304948477, 0.15601670046913246, 0.26817074391876256, 0.02564785269727146, 0.07664199800126506, 0.16657018905014526, 0.16019329455268716, 0.011495187834973981, -0.05521024814313055, 0.04796311011917402, 0.06880375668965484, 0.012159511479127217, -0.03849242954943655, -0.13715272853296184, -0.13196069782448205, -0.08152226226596293, -0.20543684208552948, -0.166016173254392, -0.158345777333624, -0.015141396554204729, -0.09807406354296866, -0.12564157561228984, -0.2069703474794429, -0.2082549746076556, -0.07664825632417722, -0.0953063185393699, -0.04793946841354157, -0.20846268315386834, -0.14008496751943858, -0.17364203325369465, -0.13634677776432816, -0.01644638978894047, 0.029752968270707898, 0.11899993031591513, 0.02292006647233364, -0.013126878596168205, 0.20876638908109177, 0.1937664518819396, 0.33263071068294275, 0.12684101363744948, -0.02551355380489417, 0.04000901429690189, -0.008852448349285438, 0.07926872556088566, 0.14217118486111785, 0.0029413862928620283, 0.0033711208870508954, -0.015633127445553445, -0.15082562052860332, -0.17616696044847205, 0.007280004966984328, -0.09494435008726575, -0.13778940020016167, -0.09833039686797629, -0.00037820932779564676, 0.015184992560421865, -0.1090524026360822, -6.229586802235096e-05, 0.1767573510357246, 0.15578899462996382, -0.06255839180862338, 0.040811799838117724, 0.187215447785363, 0.28300561440535066, 0.06809207454072497, -0.034512781438287954, 0.06458976063892818, 0.10890834122563053, 0.029141456126908945, 0.15889697124419952, -0.037725800709644354, 0.17019584728766068, 0.054412338576908366, 0.20503063951276454, -0.0009153488016347684, -0.021829741514243172, 0.17545460653400524, 0.1344191494075674, -0.020011143510565377, -0.1247466154238244, -0.004031960735680037, -0.1220824805693648, -0.11200065670422937, 0.003169477214848917, 0.01592142679641279, -0.03431731428201349, 0.007331690850546709, -0.1757681344684471, -0.04722384526649692, 0.04222397183424673, -0.06222447062813899, 0.10391216281366276, -0.09947965103137317, 0.003766104598484049, 0.12925854597913033, 0.0056670577639650315, 0.19051728347894203, 0.08632970062418147, 0.07614589205062891, -0.018333717420728878, 0.014522887166969523, 0.11035751862734963, -0.011791479406893825, 0.00927761386447733, 0.020810723187544195, 0.008763686945234613, -0.018764857020566576, 0.01002975581462076, 0.08308625699508868, 0.12233208385303529, -0.20744868179954318, -0.22420375630273562, 0.11443959359005468, 0.06789590585111945, -0.028207812614305657, -0.007578958916169532, -0.025816251213192684, -0.023664133829912736, -0.05566492381373542, 0.006645109675223823, -0.017265045003089036, -0.10570631869453832, -0.1625355188560111, -0.08965935136254576, 0.13184145511855502, -0.03587685426397645, -0.1135440020302546, -0.14100360284648872, -0.07198226834591234, 0.06690832546415443, -0.01896379010262024, -0.0877394206020699, -0.17317741488060837, -0.1433734705570627, 0.006377970621645119, -0.11876070344168337, 0.010126599791624558, -0.050650610385294496, 0.2211173151018593, -0.05703672149851096, -0.011067875367809562, 0.028122096287189424, -0.08269190686321642, -0.02426004384191124, -0.123856508842547, 0.01687418215162167, -0.012465885412708502, -0.017053206322755945, -0.09016766279131033, -0.02925159312507538, -0.026955418216116828, -0.007599623562070169, 0.0385199290006851, -0.0888748784329682, -0.07086424612156855, -0.03325779784258566, 0.15277799291157276, 0.14965150637630106, 0.0016917706024166053, -0.1128489151076159, 0.06010163426571261, 0.15416017282445996, -0.07754317195691715, -0.09127278588825005, -0.007024869306103671, 0.030104123130608885, -0.20380162043700514, -0.12673663294901544, -0.18861518430464919, -0.25494572817318917, 0.0025545652822013955, -0.13756754187673462, 0.014171649674688883, 0.13195930957407978, -0.040554453833666265, -0.023011620343528546, 0.03874420182383111, 0.10153254541270822, 0.1507270630818161, -0.023145815407455823, -0.12062083468555766, 0.06224856706707998, 0.008925156569882787, -0.336903143928821, -0.05076984977576132, -0.014043994547907862, -0.01650629666305161, -0.16730974043700464, -0.302678018312204, -0.03188361275194408], [-0.023050793231380557, 0.04926872135989997, -0.03743584735327867, 0.08819716329537555, -0.055211347682411566, -0.0325286120441463, -0.1756066428125605, -0.05935052207906685, 0.04203296548236635, 0.006650618945296576, 0.00909695585438588, -0.023352111792362792, 0.054306543223845434, -0.05616002480348637, 0.019872129040109883, 0.013387470530836557, 0.048228689618152194, -0.007966028372899841, -0.06579518667970403, -0.027116436048073043, -0.1917962894029846, 0.08883139112206609, 0.0461362762213536, -0.06755823319766721, -0.07260086180697121, -0.036817203915774345, 0.03515383911992877, -0.10903152520121928, -0.05959586792118191, 0.018209048804446556, -0.016795070390854094, -0.12170464905801752, -0.006677527712626733, -0.10053578351449848, 0.03913080346137172, 0.0919725516031065, 0.08541585288713885, 0.08195383718156238, 0.18026346102640514, -0.0611940111420204, 0.006223828622313305, 0.10600094874935122, 0.06661584690539105, 0.1441945403274541, 0.15357162677544328, 0.012666103089501632, 0.00542160669838679, 0.006364764564008043, 0.011663862390449118, 0.07104608859432067, -0.05367654108986691, 0.23407701241277049, 0.2818366847853402, 0.12487171120199765, -0.07887723674341389, -0.18530858565204011, -0.08160503105417777, 0.0001715778935416336, 4.394024965307488e-05, -0.15400409079858354, -0.2523638606509989, -0.4170753731937681, -0.3001426736153134, -0.2662872035431747, -0.24507190071543614, -0.06194080145960479, -0.13087128419637958, -0.20272633587767722, -0.20386035078605097, -0.19051240151334026, 0.02855112254579058, -0.05377480173016398, 0.04453181032618819, -0.04975812880747308, -0.14126717637798983, -0.1925509126777745, -0.1027563244206289, -0.056747140388191085, -0.08878094129821226, -0.11115721776313765, -0.12228666326039876, -0.01699015334213457, -0.027752862105776148, -0.08471802823479208, -0.04088029958396048, -0.2120427997526266, -0.20644308489070684, -0.23887845538067062, -0.17442480110107225, -0.2022625397835302, -0.06905374932975754, 0.04025712311480716, 0.1459289048143638, -0.0015729295810565753, -0.13008450495655166, -0.27113338097388234, -0.0851291121569862, 0.14520780949908976, 0.3005444561064411, -0.0014058531485386862, -0.14533024660455984, -0.028966776269205404, -0.022569192502708904, -0.03167006402193295, -0.14041252329484238, 0.010041681461342395, -0.021705268418287012, -0.07300715494585851, -0.1557903447300733, -0.16629365468549104, 0.17128421938559968, 0.2748883339688646, 0.157809953590897, 0.01604519894950327, 0.008851408199339427, -0.09099581414663434, 0.08127204852847182, 0.07012457051303002, 0.24345505285631847, 0.05105309107132066, -0.10542948370549193, -0.1565411790556425, 0.027390234018368723, 0.23532971059434124, 0.16592631584583376, -0.05241130834652157, -0.04925271091544688, 0.014125261222227993, 0.01813968887744412, -0.14309189057009278, -0.1021698709575834, -0.02119315282331022, -0.11892600378687476, -0.09403043669998068, -0.01543388137733668, 0.07869033150894601, 0.07189317228964254, -0.0530739759796069, -0.05239675852151958, -0.16937344604383398, 0.20124655612106795, 0.1895519336945507, 0.10301525826569556, -0.0331398416974829, -0.023905435120851557, 0.020794909063393794, 0.04839038475082657, 0.02771210085469712, 0.09953112864238725, -0.014615441841688417, -0.10475739157673436, -0.02792907140751881, 0.06893541633690584, -0.05588232661840629, 0.011352312293152847, -0.24956526289136452, -0.22086623970793845, -0.08701423582798866, -0.19653041108069316, -0.155674640829687, 0.07118205877697754, 0.021298922610219866, 0.04700651150803144, -0.21188186706320514, -0.08913818872444529, 0.09946143875444548, 0.15875821721465064, 0.0315279164972466, -0.09416012509286947, -0.06094311499497216, 0.08118461935433736, 0.11738318274034926, 0.015635816771459744, 0.02710718169751166, 0.07859718856131112, -0.013582371707601576, 0.05135409022817046, -0.04437145802223601, 0.013718506294447477, 0.07279513664844577, 0.08047841511145996, 0.16463045068342436, 0.2162241321638388, 0.1845483899042406, 0.1151219389294771, 0.15841949580427403, 0.13141961208570724, 0.28828853269085297, 0.1119922992946012, 0.05537944092244877, 0.07582425742454829, -0.05305131439239789, 0.06849018177401404, -0.06271418645508496, -0.03556966833031352, 0.022825685020606886, -0.003513320553001642, -0.04514385322744445, -0.019579961245394073, -0.06278594327541842, 0.14090590191577607, -0.04242657952660333, -0.09216235267878209, -0.09730193484909944, -0.033006136013480444, 0.07941366902578219, 0.10792452870885581, -0.05419613141508788, -0.0858968345457267, -0.086734436276587, -0.07760540566024786, -0.011383897840121348, -0.05985168309863776, 0.013536930136027565, -0.004579222829160538, -0.024855815849551457, 0.05665657712617613, -0.017937879293827518, 0.04413119755087415, 0.0018282823136511342, -0.0747910049972831, 0.0025074793923087237, 0.015577328110295083, 0.003831823550353926, -0.018975634131635697, -0.06367185782128242, -0.10096333884098371, 0.015553798635219256, 0.11011477960616567, 0.0567808889845389, 0.04720037047713308, 0.04132999954852075, 0.10039087088137243, 0.1614922146387423, 0.032976670623273786, -0.24406523939704988, -0.03237393837587945, -0.07301933409835804, -0.036348528308936694, -0.04427087939979515, -0.22064521470369275, -0.17570930442145333, -0.32580758368864776, -0.21798989261696652, -0.11035845490178424, 0.06748006845690654, 0.23348605578397374, 0.023099246814132987, -0.024835518699776994, -0.17185979683800845], [0.0015501220803006341, -0.11944270724899243, 0.04227058707932938, 0.08252118656801538, 0.07817953847185592, 0.008147283435711233, -0.07367343509388438, -0.036746293159055136, 0.059397707032850564, -0.021436833494663698, 0.039127505954025844, -0.15118398725500043, 0.014357529288390007, 0.06233725937480286, 0.0227305781933769, -0.08787204504470798, -0.025066384966889135, 0.0012032857520266327, -0.037526893752564655, 0.0232745054739258, 0.03972210878016852, 0.027329431730690447, -0.023211066904112995, 0.07822012886700959, -0.09015208194929007, -0.0005030090790431283, -0.11013615025795566, -0.025684474956006672, 0.04181556359028637, 0.011371553485140993, 0.022623551720483758, -0.08987650806263381, -0.0632598272579296, -0.05968733463787487, -0.04183495711765956, 0.0857400839083856, -0.011972262754349941, -0.04056889304730119, 0.0025889799600424695, -0.054701245567293416, 0.049057723302653206, 0.1154301973312416, 0.11853489563849129, -0.10873087559903488, 0.02767463713544045, 0.09372815498313428, 0.06415107885356584, 0.18432935524083147, 0.1596186789635409, 0.13319048042272275, -0.0946200592146964, -0.002650224090491468, 0.11142384437567449, 0.13133448113955182, 0.17036296540072954, -0.07317554631321632, 0.08947957200889571, 0.12911263113340737, 0.12731948923840578, 0.2740348602269433, -0.14239545665931486, -0.05816309484470444, -0.05979977315603043, -0.14747371966735662, -0.06557141404239104, -0.13385315108616222, -0.09291745405229718, -0.10341437896039264, -0.16744019145898223, -0.02804984503729572, -0.029156848080374168, -0.07701356462499989, -0.12440755575609931, -0.15482752721740659, 0.009580351784739406, -0.15394190098187033, -0.17514973955247984, 0.039309638926893105, -0.061350558948768785, -0.05011452858527293, -0.1272670685287821, 0.05035320486381392, 0.0262037291039854, -0.09756759307441346, 0.060852998126295396, -0.16012027487441274, -0.07861509562642573, -0.030004715420664487, 0.17483508603941592, 0.014300321479497965, -0.16659809101915232, -0.29832187476115823, -0.11698123030505776, -0.06412075492443067, -0.13551172962843447, -0.13144449509866696, 0.15055298641057585, -0.04549341919622636, -0.12620595680672286, -0.181447622530651, -0.12191129454815655, -0.18698658936828585, -0.12345875637718695, -0.11051843570390787, -0.10480459904904839, -0.04430892309149136, -0.1288387003939795, -0.05600295971944236, 0.06762343048077724, -0.16268184038744615, 0.02727148099252841, 0.016772973983386123, -0.09111466569903696, -0.011873810614991999, -0.0914043708843293, 0.21523964131565007, 0.012355433706086685, 0.07245336542913114, -0.014955285004460691, -0.05502075044812443, 0.17592123983344504, 0.0760040142125084, 0.3617315619179998, 0.2023254536227132, 0.12389920145197553, 0.11778237061881178, 0.008237350598597397, 0.1035544762100596, 0.16824498162012025, 0.13850324809870404, -0.04670490904491465, -0.04926905113590037, 0.0683333576341989, -0.018059989200640413, -0.07527492815186393, 0.02767892979923073, -0.0796870971457047, -0.004961592991929208, 0.06053354681615815, -0.10054736441564768, 0.13157884228740593, -0.006552076027888444, -0.055403274619135925, -0.026312089690967676, -0.04514035283145093, 0.13870815182095098, 0.08603639928287626, 0.13360498207101293, 0.03467995777313289, 0.14616624320274246, -0.09153740595364152, -0.08232492459832337, 0.06710096010396745, 0.1333043384086689, 0.076879508339608, -0.15460511591574944, -0.08904414183338187, 0.06240146156479105, 0.1192119578020226, 0.023743852333624353, -0.21911506552768625, -0.27063091050132604, -0.27245873313244845, -0.23915291301513375, -0.2091502369979116, -0.08503707613357833, -0.08023481093974154, -0.15569966918473988, -0.15052232386188305, -0.10530959224814147, 0.15112896115637353, 0.22531406733544607, 0.24599993254289462, 0.17253842448901732, 0.31420592410082776, -0.09941018072375407, -0.12390098796271441, 0.06781690073962757, 0.030823777411341187, -0.12529117844115067, -0.03046994361627228, -0.10276410192884806, 0.02346576255524903, -0.011958653283050694, 0.011299393589130754, -0.10927036716099708, 0.05270577690399865, 0.09373576237291234, 0.0951618949566525, 0.13768882904243523, -0.08208175196586973, 0.029951474384542702, 0.12390309186449794, 0.1374558036421996, 0.2182267545778685, -0.08702114740397116, 0.02022077174789179, -0.013724034801064626, -0.08503777116541598, -0.08093445961518209, -0.00044726309294506006, -0.10437886413021208, -0.07701073515957166, -0.03327264832173013, 0.031780967165440606, 0.0104144807298511, -0.046770886893199304, 0.05779253656053373, -0.0620802114207038, -0.04682850199134104, 0.03472755659370085, -0.003938736795970261, 0.05810033330222818, 0.051064539541667946, -0.0942882947869935, -0.10790555313523509, -0.02790989920508807, 0.01672545741210173, 0.017460775920518572, -0.04929515253734996, 0.020373649741268807, -0.07031664172644041, -0.12456044284934178, -0.09528171721547372, 0.05943466715020315, 0.0021973219330302376, -0.05004077793811638, -0.17983568470956987, -0.15688306603282856, -0.0239287991989227, -0.26070293249139925, -0.2517118460640241, -0.06839110521643757, 0.041792473206899446, 0.014784905313325644, -0.1999051850153914, -0.07417619248167248, -0.07338374140647021, -0.011395431738667227, 0.029263115192084795, -0.1781045595327243, -0.22588996760206273, -0.17547141689657164, 0.06028361295865719, 0.0463300550336782, -0.11550955251334573, -0.11931839848261025, -0.22709595092169316, -0.18241549965444037, 0.032200024166711284], [-0.12376779551028484, 0.04321377546983895, 0.01616021039935552, -0.10199915914457656, 0.04212551140993126, -0.03693170815675056, 0.06736962588824741, 0.10597148503457307, 0.00016701244917208204, -0.05211965010974348, 0.09724008819287885, -0.11006690888463423, 0.1484335738043897, -0.005922050325173375, -0.0021077450091773814, 0.02592057249205417, 0.1049846936604109, 0.03707801422733522, -0.1685432570773639, -0.012200343838494157, 0.060138798127642515, 0.022421772287137497, -0.03958326407974198, 0.0439626374225818, 0.022830473726463095, 0.04853501253909596, 0.040111207880691266, -0.07988101176516939, -0.10684216003175583, 0.009412779742961409, -0.010130430924874584, 0.05687699525987685, 0.10607712244309449, 0.09120349742537749, -0.033690247507032534, -0.06981875558577429, -0.051860164193205396, -0.004004807382890061, -0.05011400832232833, 0.04747703685427158, 0.03147971816174898, 0.08433591421999258, -0.10126913832913477, 0.05468638538300702, -0.030474837056787912, 0.11861521999063876, -0.06379264701649365, -0.04605406041985589, 0.019315159014364643, -0.22867030433033905, 0.12026351776929645, -0.006262159687426804, -0.02230569952718419, -0.05303875682241451, -0.08875543374154422, 0.10843536706898414, 0.0028471557957510073, -0.165295926815227, 0.0869112892177515, -0.05559481109202953, 0.019204797940763216, 0.06642474339191029, -0.15468680933196335, -0.12281724781616603, -0.12427819228046681, -0.06139094311591627, -0.04647275902358544, -0.030997031590093767, -0.05083751211366706, 0.039912843015525674, -0.03668817005423739, 0.11052215376885265, 